tree
version=v4
num_class=1
num_tree_per_iteration=1
label_index=0
max_feature_idx=10
objective=binary sigmoid:1
feature_names=ApplicantIncome CoapplicantIncome LoanAmount Loan_Amount_Term Credit_History Gender Married Dependents Education Self_Employed Property_Area
feature_infos=[150:81000] [0:41667] [0:700] [0:480] [0:1] -1:1:0:2 -1:2:0 -1:0:1:2:3:4 -1:0:1 -1:0:2:1 -1:1:2:0
tree_sizes=2099 2184 2388 2319 2212 2401 2107 2381 2195 2310 2381 2323 2200 2418 2411 2305 2200 2318 2206 2295 2413 2094 2331 2185 2196 2327 2403 2109 2407 2222 2305 2295 2410 2333 2216

Tree=0
num_leaves=20
num_cat=5
split_feature=4 10 2 2 2 5 2 2 6 2 0 1 2 2 10 2 2 1 5
split_gain=93.3545 8.3175 5.85937 4.2799 3.85866 5.47239 3.0965 2.72084 2.72883 2.33266 2.6755 1.64472 5.90897 2.61505 1.56089 1.23499 1.1999 1.01037 0.171526
threshold=1.0000000180025095e-35 0 84.500000000000014 64.000000000000014 232.00000000000003 1 153.00000000000003 99.500000000000014 2 140.50000000000003 4550.5000000000009 1996.5000000000002 137.50000000000003 134.50000000000003 3 112.50000000000001 169.00000000000003 1996.5000000000002 4
decision_type=2 1 2 2 2 1 2 2 9 2 2 2 2 2 1 2 2 2 1
left_child=11 6 3 -3 5 9 7 8 -2 10 15 13 -13 14 -1 -4 -11 -8 -9
right_child=1 2 4 -5 -6 -7 17 18 -10 16 -12 12 -14 -15 -16 -17 -18 -19 -20
leaf_value=0.78330126671007072 0.87389832640713039 0.87473796551461014 0.92223754930917601 0.80731494518399016 0.85045062688714179 0.84542360884912315 0.87473796551461014 0.93939017679054704 0.92847486839331095 0.93939017679054715 0.8648649677335557 0.84333546289486938 0.76189777067896869 0.80366068976404592 0.74427903918995164 0.89136281984270826 0.90626786165410644 0.90664425159883877 0.92738333755358737
leaf_weight=4.1642934083938599 4.5807227492332476 5.413581430912016 5.8300107717514091 4.1642934083938599 5.6217961013317099 4.788937419652938 5.413581430912016 10.410733520984648 4.5807227492332458 4.9971520900726301 6.0382254421710959 4.1642934083938581 4.7889374196529388 4.788937419652938 6.6628694534301776 7.2875134646892548 6.0382254421710968 4.5807227492332458 4.164293408393859
leaf_count=20 22 26 28 20 27 23 26 50 22 24 29 20 23 23 32 35 29 22 20
internal_value=0.868409 0.893508 0.880602 0.845424 0.8889 0.895079 0.912708 0.922538 0.901187 0.902956 0.892407 0.782691 0.799776 0.772895 0.759288 0.905085 0.921267 0.889362 0.93596
internal_weight=108.48 83.9105 50.1797 9.57787 40.6019 34.9801 33.7308 23.7365 9.16145 30.1911 19.1557 24.5693 8.95323 15.6161 10.8272 13.1175 11.0354 9.9943 14.575
internal_count=521 403 241 46 195 168 162 114 44 145 92 118 43 75 52 63 53 48 70
cat_boundaries=0 1 2 3 4 5
cat_threshold=2 2 1 4 2
is_linear=0
shrinkage=1


Tree=1
num_leaves=20
num_cat=4
split_feature=4 10 2 2 2 5 2 2 2 2 1 2 2 10 0 2 1 2 5
split_gain=82.2197 7.77313 5.31021 3.74096 3.52771 5.0213 2.94432 2.62568 2.20934 2.57968 1.34417 4.92207 2.15395 1.4513 1.18825 1.16261 0.937972 0.195101 0.168905
threshold=1.0000000180025095e-35 0 84.500000000000014 64.000000000000014 232.00000000000003 1 153.00000000000003 99.500000000000014 140.50000000000003 126.50000000000001 1996.5000000000002 137.50000000000003 128.50000000000003 2 3597.5000000000005 169.00000000000003 1996.5000000000002 79.000000000000014 3
decision_type=2 1 2 2 2 1 2 2 2 2 2 2 2 1 2 2 2 2 1
left_child=10 6 3 -3 5 8 7 17 9 14 12 -12 13 -1 -4 -10 -8 -2 -9
right_child=1 2 4 -5 -6 -7 16 18 15 -11 11 -13 -14 -15 -16 -17 -18 -19 -20
leaf_value=-0.078136621850231014 0.038603747099989587 0.0060283190804856154 0.049215273891123998 -0.056615489124834932 -0.016933764720671089 -0.021629177455754951 0.0060283190804856154 0.069543302382866365 0.069543302382866393 -0.0040193147288897146 -0.023573935246542221 -0.096997971384136975 -0.062150578020977156 -0.11576340616820679 0.018750662319551133 0.036552518469070178 0.036921971011859268 0.023894725731027092 0.057470691961125114
leaf_weight=4.3051666021347046 4.7260982841253298 5.3995479345321638 7.1649242937564903 4.2662712931632996 5.6628423482179633 4.8336187005043021 5.3995479345321638 10.102465748786924 4.8491835594177228 6.0152037292718878 4.2066481709480268 4.9901090860366821 5.5680924504995337 6.331877559423452 5.7851943671703339 5.9437225610017776 4.5083103477954865 4.3106050044298172 4.0621727705001822
leaf_count=20 23 26 35 20 27 23 26 50 24 29 20 23 26 29 28 29 22 21 20
internal_value=3.50415e-05 0.0241173 0.0116582 -0.0216212 0.0196491 0.0256379 0.0429025 0.0526461 0.0333155 0.023038 -0.0786811 -0.0634134 -0.0873458 -0.100535 0.0356058 0.0513751 0.0200857 0.0315874 0.0660811
internal_weight=108.432 83.0297 49.9205 9.66582 40.2547 34.5918 33.1092 23.2013 29.7582 18.9653 25.4019 9.19676 16.2051 10.637 12.9501 10.7929 9.90786 9.0367 14.1646
internal_count=521 403 241 46 195 168 162 114 145 92 118 43 75 49 63 53 48 44 70
cat_boundaries=0 1 2 3 4
cat_threshold=2 2 4 2
is_linear=0
shrinkage=0.05


Tree=2
num_leaves=22
num_cat=4
split_feature=4 10 2 6 2 0 2 2 6 2 0 1 5 2 0 1 1 1 0 0 1
split_gain=72.7991 7.26516 4.81571 3.3217 3.28343 3.26534 2.8034 2.54419 2.60991 1.79091 3.33389 7.68603 1.23309 2.93693 2.42314 0.93003 0.874079 0.870767 0.54971 0.168724 2.23946e-05
threshold=1.0000000180025095e-35 0 84.500000000000014 1 64.000000000000014 4687.0000000000009 153.00000000000003 99.500000000000014 2 126.50000000000001 5188.0000000000009 2318.0000000000005 3 158.50000000000003 2932.0000000000005 520.50000000000011 1642.0000000000002 1996.5000000000002 3216.0000000000005 4195.5000000000009 1666.5000000000002
decision_type=2 1 2 9 2 2 2 2 9 2 2 2 1 2 2 2 2 2 2 2 2
left_child=12 6 4 9 -3 -5 7 8 -2 18 11 -11 -1 14 -14 -12 -16 -8 -4 20 -9
right_child=1 2 3 5 -6 -7 17 19 -10 10 15 -13 13 -15 16 -17 -18 -19 -20 -21 -22
leaf_value=-0.051713539908095886 0.0036907924840455554 0.0057415422825175368 0.058746051685263957 0.018962123667611127 -0.052637417394422972 -0.031711399652822846 0.0057415422825175368 0.068433562282474866 0.057800904583742978 -0.05214323691376721 0.052895002322774734 0.04504011794534063 -0.061576570771562117 -0.052240773304947863 -0.091080542526578989 0.021543221559195014 -0.12210653592145221 0.0356548326860033 0.033836310052245591 0.056264452715783411 0.068280236434570443
leaf_weight=5.5314857065677643 4.509867340326311 5.3861304521560651 4.8053593486547488 7.7898500263690931 4.3568071722984314 5.3711147159337997 5.3861304521560651 4.3294256627559644 4.4052847772836685 4.0879875868558901 5.5907868891954404 4.0502033829689026 4.4071695953607621 7.0854415893554679 4.4917244017124158 4.1002432554960251 4.5896116644144058 4.4369469881057739 4.1083524078130722 4.127071574330329 5.2931244224309921
leaf_count=25 22 26 24 38 20 26 26 22 22 20 27 20 20 32 20 20 21 22 20 21 27
internal_value=6.27681e-05 0.0231803 0.0111509 0.0188456 -0.0203641 -0.00171822 0.0415632 0.0512326 0.0304285 0.0289656 0.0198168 -0.00377716 -0.0726711 -0.0783057 -0.0919975 0.0396302 -0.106761 0.019253 0.0472651 0.0647219 0.0683492
internal_weight=108.24 82.1347 49.6468 39.9039 9.74294 13.161 32.4879 22.6648 8.91515 26.7429 17.8292 8.13819 26.1054 20.5739 13.4885 9.69103 9.08134 9.82308 8.91371 13.7496 9.62255
internal_count=521 403 241 195 46 64 162 114 44 131 87 40 118 93 61 47 41 48 44 70 49
cat_boundaries=0 1 2 3 4
cat_threshold=2 4 1 1
is_linear=0
shrinkage=0.05


Tree=3
num_leaves=21
num_cat=2
split_feature=4 10 2 2 0 1 0 0 0 2 2 2 6 1 2 2 2 0 2 0
split_gain=64.6908 6.79575 4.36873 3.30466 3.78598 3.04732 3.83033 3.25758 3.15365 2.89208 2.67429 2.46902 2.46009 1.14685 4.25474 1.66499 0.866226 0.56916 0.174236 4.31712e-05
threshold=1.0000000180025095e-35 0 84.500000000000014 232.00000000000003 7580.5000000000009 1012.0000000000001 4195.5000000000009 2538.0000000000005 4927.0000000000009 64.000000000000014 153.00000000000003 99.500000000000014 1 1996.5000000000002 137.50000000000003 118.50000000000001 187.50000000000003 3329.5000000000005 113.50000000000001 3996.5000000000005
decision_type=2 1 2 2 2 2 2 2 2 2 2 2 9 2 2 2 2 2 2 2
left_child=13 10 9 4 5 8 7 -7 -4 -3 11 12 -2 15 -15 -1 -12 -9 -13 -20
right_child=1 2 3 -5 -6 6 -8 17 -10 -11 16 18 -14 14 -16 -17 -18 -19 19 -21
leaf_value=-0.090080063705464786 0.0035119019809014169 0.0054678278779209935 -0.026796010346525581 -0.01735124515399546 0.069477260278781913 0.0091312010561064617 -0.01174834024692082 0.068850850013782813 0.027583002384423912 -0.049076142473944297 0.0021902210594351942 0.054730149732009674 0.056421165399508658 -0.017229046919895481 -0.083916329583768989 -0.058815969748431222 0.032124295077433515 0.044305296490650153 0.067104051135755585 0.067320207488853243
leaf_weight=8.9401917308569008 4.5027983486652428 5.3733076751232129 6.1688307225704211 5.6450010538101187 4.0270659029483786 4.9944108426570919 4.2803377062082282 5.7558903992176038 4.6956747621297836 4.4371452927589417 4.4485614001750928 4.0016927868127814 4.2902957051992416 4.3828846216201764 5.2650051712989807 8.1321502774953824 5.2915713787078857 4.0050498247146606 5.1275998651981336 4.2035970687866211
leaf_count=39 22 26 30 27 20 25 21 29 23 20 22 21 22 20 23 36 26 20 27 22
internal_value=8.77178e-05 0.0222826 0.0106666 0.0180713 0.0239651 0.0178354 0.0298944 0.0419745 -0.00329322 -0.0192017 0.0402839 0.0498943 0.0293272 -0.0674008 -0.0536213 -0.0751879 0.0184527 0.0587795 0.0634583 0.0672014
internal_weight=107.969 81.2488 49.3827 39.5723 33.9273 29.9002 19.0357 14.7554 10.8645 9.81045 31.8661 22.126 8.79309 26.7202 9.64789 17.0723 9.74013 9.76094 13.3329 9.3312
internal_count=521 403 241 195 168 148 95 74 53 46 162 114 44 118 43 75 48 49 70 49
cat_boundaries=0 1 2
cat_threshold=2 1
is_linear=0
shrinkage=0.05


Tree=4
num_leaves=20
num_cat=2
split_feature=4 6 2 2 1 0 2 2 2 2 0 5 2 0 1 1 2 1 2
split_gain=57.7084 5.10096 2.53905 3.57233 2.0208 4.04891 2.80177 1.69655 4.31847 2.91895 1.15899 1.02955 2.49652 1.99871 0.882847 0.757052 0.602555 0.176367 0.000411232
threshold=1.0000000180025095e-35 0 84.500000000000014 126.50000000000001 2216.5000000000005 5145.0000000000009 169.00000000000003 100.50000000000001 72.500000000000014 150.50000000000003 4300.5000000000009 1 158.50000000000003 2932.0000000000005 1457.5000000000002 1642.0000000000002 185.50000000000003 1996.5000000000002 104.50000000000001
decision_type=2 9 2 2 2 2 2 2 2 2 2 1 2 2 2 2 2 2 2
left_child=11 7 -3 10 5 -5 -6 8 -2 14 17 -1 13 -13 -9 -15 -7 18 -4
right_child=1 2 3 4 6 16 -8 9 -10 -11 -12 12 -14 15 -16 -17 -18 -19 -20
leaf_value=-0.043981873503396968 0.017469461338004932 0.0021079927094643995 0.067441273661477286 -0.021370462137439442 0.067526256667921336 0.045548951558010475 0.017358036064064906 0.018496312044985221 -0.043670421984709738 -0.011598312442265689 0.031482752981916912 -0.052975673154249364 -0.044212979436407895 -0.078861987819828797 0.046646871876637908 -0.10702092607764722 0.022021403918104473 0.053918956185552119 0.06671356948578068
leaf_weight=5.7356373518705368 6.4808496832847613 6.5484913289546958 3.8312714546918851 5.470663368701941 5.3574614077806455 4.3343978077173215 5.7914623916149139 6.9277507066726702 5.2099306285381317 6.7251694947481147 3.983255833387374 4.5814638584852281 7.3604094982147208 4.704460456967352 4.6577130258083344 4.8451893627643585 7.3124658167362213 3.7928723394870758 3.9357722401618958
leaf_count=25 31 32 20 27 28 22 29 35 25 33 20 20 32 20 24 21 36 20 21
internal_value=0.000108588 0.0214239 0.0311472 0.0354879 0.0249004 0.0141111 0.0414657 0.00510316 -0.00977718 0.0146038 0.0547422 -0.0628026 -0.0678254 -0.0801243 0.0298137 -0.0931489 0.0307772 0.0627568 0.0670725
internal_weight=107.587 80.3595 50.3581 43.8096 28.2665 17.1175 11.1489 30.0014 11.6908 18.3106 15.5432 27.2272 21.4915 14.1311 11.5855 9.54965 11.6469 11.5599 7.76704
internal_count=521 403 255 223 142 85 57 148 56 92 81 118 93 61 59 41 58 61 41
cat_boundaries=0 1 2
cat_threshold=1 1
is_linear=0
shrinkage=0.05


Tree=5
num_leaves=22
num_cat=3
split_feature=4 10 2 2 5 2 2 2 2 0 0 2 1 2 2 10 1 1 2 2 1
split_gain=51.5937 6.36303 3.76181 2.94924 4.31687 2.53873 2.4591 2.30726 2.20052 2.21887 1.3552 1.18477 1.00818 3.7778 1.41288 1.05815 0.826775 0.447495 0.191262 0.18039 0.000528156
threshold=1.0000000180025095e-35 0 84.500000000000014 232.00000000000003 1 153.00000000000003 64.000000000000014 99.500000000000014 140.50000000000003 4550.5000000000009 2591.5000000000005 169.00000000000003 1996.5000000000002 137.50000000000003 134.50000000000003 2 1996.5000000000002 1515.0000000000002 79.000000000000014 113.50000000000001 1471.0000000000002
decision_type=2 1 2 2 1 2 2 2 2 2 2 2 2 2 2 1 2 2 2 2 2
left_child=12 5 6 4 8 7 -3 18 9 10 -4 -10 14 -14 15 -1 -7 -12 -2 -9 -21
right_child=1 2 3 -5 -6 16 -8 19 11 -11 17 -13 13 -15 -16 -17 -18 -19 -20 20 -22
leaf_value=-0.056491106863463036 0.035159362716632343 0.0047099428790119465 0.0082409012663614278 -0.017044025663751818 -0.021676841266262688 0.0037484658720155074 -0.045415521487121462 0.052465851263451407 0.067084763712852422 -0.006143901905065024 0.031394150624860534 0.032785157119036304 -0.012150815795036511 -0.073969888612178056 -0.044264404561748877 -0.08657847344306667 0.033268437967804092 0.055049047933954945 0.020263123748153478 0.065909223616415588 0.065133222131960114
leaf_weight=4.723831832408905 4.5104104429483467 5.3376590907573682 4.2143941521644646 5.6561717838048926 4.828437164425849 5.2918506264686567 4.5177704691886902 3.8046799302101126 4.5387085974216443 5.9057848751544944 3.9799618273973465 5.6538777947425842 4.5163661390542966 5.4578967988491058 5.304377630352973 7.6624155044555717 4.2985993325710297 4.017557218670845 4.1260490864515305 4.0264702439308149 4.814525380730629
leaf_count=20 23 26 22 27 23 26 20 21 24 29 20 29 20 23 23 32 22 21 21 22 27
internal_value=0.000123715 0.0205841 0.00931734 0.016325 0.0220205 0.0383388 -0.0182678 0.0479638 0.0294733 0.0190177 0.031186 0.0480586 -0.0586898 -0.0459781 -0.0658569 -0.0751038 0.0169798 0.0432772 0.0280427 0.0615691 0.0654866
internal_weight=107.188 79.5229 48.6503 38.7949 33.1387 30.8726 9.85543 21.2821 28.3103 18.1177 12.2119 10.1926 27.6649 9.97426 17.6906 12.3862 9.59045 7.99752 8.63646 12.6457 8.841
internal_count=521 403 241 195 168 162 46 114 145 92 63 53 118 43 75 52 48 41 44 70 49
cat_boundaries=0 1 2 3
cat_threshold=2 2 4
is_linear=0
shrinkage=0.05


Tree=6
num_leaves=19
num_cat=2
split_feature=4 6 2 2 1 0 2 2 2 2 0 5 2 2 0 1 1 2
split_gain=46.2698 4.68432 2.24604 3.42329 1.84445 3.89785 2.66643 1.43546 3.40563 2.78913 1.10559 0.887433 2.15732 1.7056 0.590607 0.456843 0.178236 0.000888783
threshold=1.0000000180025095e-35 0 84.500000000000014 126.50000000000001 2216.5000000000005 5145.0000000000009 169.00000000000003 106.50000000000001 72.500000000000014 150.50000000000003 4300.5000000000009 1 158.50000000000003 100.50000000000001 9245.0000000000018 1457.5000000000002 1996.5000000000002 104.50000000000001
decision_type=2 9 2 2 2 2 2 2 2 2 2 1 2 2 2 2 2 2
left_child=11 7 -3 10 5 -5 -6 8 -2 15 16 -1 13 -13 -7 -9 17 -4
right_child=1 2 3 4 6 14 -8 9 -10 -11 -12 12 -14 -15 -16 -17 -18 -19
leaf_value=-0.037786037631464924 0.016541097175073297 0.00196794238239519 0.065948152082638115 -0.022125274035323991 0.065687207659998303 0.018583781386161399 0.015773386070350205 0.021192502660171628 -0.035782313608590452 -0.011707364357372685 0.029935682051941699 -0.049494258032729804 -0.037955301837217341 -0.084562591977782486 0.041359411425316732 0.042569644432130321 0.051846856606963601 0.064849211971907267
leaf_weight=5.8827755600214005 6.4141647666692752 6.5247681885957709 3.6624478846788389 5.4337706416845384 5.0510917007923108 6.0395439118146879 5.6894160062074661 6.376123175024988 6.0368343442678452 6.7109527438879004 3.8995349556207648 5.6862099021673265 7.5561313629150382 8.8851814270019513 5.3837583214044571 4.1103710383176804 3.6216062158346176 3.697209358215332
leaf_count=25 31 32 20 27 28 31 29 33 29 33 20 24 32 37 27 22 20 21
internal_value=0.000136918 0.0197895 0.0292808 0.0334762 0.0230533 0.0127355 0.0392471 0.0041021 -0.00882777 0.0134634 0.0528061 -0.0550466 -0.0596354 -0.0708778 0.0293178 0.0295717 0.0609276 0.0653961
internal_weight=106.662 78.6516 49.0031 42.4784 27.5976 16.8571 10.7405 29.6484 12.451 17.1974 14.8808 28.0103 22.1275 14.5714 11.4233 10.4865 10.9813 7.35966
internal_count=521 403 255 223 142 85 57 148 60 88 81 118 93 61 58 55 61 41
cat_boundaries=0 1 2
cat_threshold=1 1
is_linear=0
shrinkage=0.05


Tree=7
num_leaves=22
num_cat=5
split_feature=4 10 2 2 5 2 2 2 6 2 2 6 2 0 5 0 0 2 2 0 1
split_gain=41.5484 5.9587 3.24437 2.69555 3.89299 2.41721 2.19107 2.1878 2.12299 2.10419 2.09198 5.33051 1.16138 0.928346 1.51083 1.68816 2.36503 0.831224 0.18457 0.0108889 0.0012533
threshold=1.0000000180025095e-35 0 84.500000000000014 232.00000000000003 1 153.00000000000003 140.50000000000003 99.500000000000014 2 64.000000000000014 126.50000000000001 3 169.00000000000003 5404.0000000000009 4 2816.0000000000005 3559.5000000000005 187.50000000000003 113.50000000000001 3031.0000000000005 1471.0000000000002
decision_type=2 1 2 2 1 2 2 2 9 2 2 9 2 2 1 2 2 2 2 2 2
left_child=13 5 9 4 6 7 10 8 -2 -3 11 -4 -8 14 -1 -16 -17 -7 -9 -13 -20
right_child=1 2 3 -5 -6 17 12 18 -10 -11 -12 19 -14 -15 15 16 -18 -19 20 -21 -22
leaf_value=-0.022954075711337934 0.0031202374149147971 0.0040124928364353952 -0.017044958670555384 -0.017154137732439543 -0.021056580916157315 -0.00049536852541653552 0.065766585458598523 0.050507556013843879 0.053229440930714911 -0.042236714611818257 -0.0075241089996149124 0.051436335667050186 0.031215608744060278 -0.066584542290680532 -0.03103441346317758 -0.090011266882313826 -0.041814254850240963 0.029270766969364977 0.064680007365481615 0.05519443682879617 0.063451879388222068
leaf_weight=5.2198075503110886 4.4826956838369423 5.3046490550041181 4.099399507045753 5.6493848711252204 4.8452490121126166 4.3376805633306486 4.3420030623674375 3.6235668659210196 3.9997732192277908 4.5850262343883514 5.8267240375280371 3.5917198807001096 5.5295305848121643 7.6631349772214881 5.2469299137592378 5.0978056937456113 5.0833392590284348 5.1064140051603317 3.8538579791784269 4.1597843915224075 4.5064287036657333
leaf_count=22 22 26 21 27 23 22 24 21 22 20 29 20 29 32 22 21 21 26 22 22 27
internal_value=0.000147073 0.0190115 0.00808385 0.0147162 0.0202741 0.0365237 0.0275432 0.0461792 0.0267484 -0.0174294 0.0170061 0.0290668 0.0464129 -0.0517224 -0.0462065 -0.0540736 -0.065947 0.0155992 0.0599328 0.0534531 0.064018
internal_weight=106.155 77.8439 47.9335 38.0438 32.3944 29.9104 27.5492 20.4663 8.48247 9.88968 17.6776 11.8509 9.87153 28.311 20.6479 15.4281 10.1811 9.44409 11.9839 7.7515 8.36029
internal_count=521 403 241 195 168 162 145 114 44 46 92 63 53 118 86 64 42 48 70 42 49
cat_boundaries=0 1 2 3 4 5
cat_threshold=2 2 1 1 1
is_linear=0
shrinkage=0.05


Tree=8
num_leaves=20
num_cat=3
split_feature=4 10 2 6 0 2 2 6 2 0 0 2 2 1 2 2 1 2 1
split_gain=37.3805 5.56519 2.94374 2.46437 2.87164 2.31444 2.1393 2.00567 1.86855 1.70718 5.65949 2.57814 1.1231 0.87327 3.34408 1.37214 0.786857 0.185183 0.00103396
threshold=1.0000000180025095e-35 0 84.500000000000014 1 4687.0000000000009 153.00000000000003 99.500000000000014 2 64.000000000000014 5188.0000000000009 4195.5000000000009 134.50000000000003 185.50000000000003 1996.5000000000002 137.50000000000003 118.50000000000001 1996.5000000000002 113.50000000000001 1471.0000000000002
decision_type=2 1 2 9 2 2 2 9 2 2 2 2 2 2 2 2 2 2 2
left_child=13 5 8 9 -5 6 7 -2 -3 10 11 -4 -11 15 -15 -1 -7 -8 -19
right_child=1 2 3 4 -6 16 17 -9 -10 12 -12 -13 -14 14 -16 -17 -18 18 -20
leaf_value=-0.068335966281695165 0.0029682992317101079 0.0038186165691033083 0.055843765171365869 0.016274333810808107 -0.031585095249413407 0.0019685843519384764 0.04940520124657044 0.052056181256198458 -0.039645208352175068 0.056423237992395153 -0.036393115266561714 0.005815573110188996 0.023284845812731172 -0.0057553189314028539 -0.062993431083048501 -0.040893982920465352 0.031116817074952691 0.063761355353487356 0.062625261436054069
leaf_weight=9.5612566024065071 4.4767009466886574 5.2955135703086835 5.4638606011867541 7.5447551161050779 5.3615725040435791 5.2057127654552442 3.5217971205711356 3.8882721364498138 4.639048159122467 4.8500588238239271 4.230025351047515 4.8710851818323135 5.407415896654129 4.6667850613594037 5.6306095719337463 8.7001648396253568 4.1699867099523544 3.7173729538917524 4.3417870700359344
leaf_count=39 22 26 31 38 26 26 21 22 20 26 21 26 27 20 23 36 22 22 27
internal_value=0.000158548 0.0182821 0.00773801 0.0141143 -0.00360753 0.0354219 0.0450529 0.0257857 -0.0164773 0.0233286 0.0123246 0.0322644 0.0389537 -0.0486964 -0.0370531 -0.055262 0.0149327 0.0589697 0.0631493
internal_weight=105.544 76.985 47.6633 37.7288 12.9063 29.3216 19.9459 8.36497 9.93456 24.8224 14.565 10.3349 10.2575 28.5588 10.2974 18.2614 9.3757 11.581 8.05916
internal_count=521 403 241 195 64 162 114 44 46 131 78 57 53 118 43 75 48 70 49
cat_boundaries=0 1 2 3
cat_threshold=2 4 1
is_linear=0
shrinkage=0.05


Tree=9
num_leaves=21
num_cat=3
split_feature=4 10 2 2 0 5 0 2 2 0 0 2 0 2 1 2 2 5 2 1
split_gain=33.6915 5.19982 2.67062 2.44428 3.66125 3.54482 2.27841 2.21588 2.09359 1.96519 1.88173 1.66258 0.881606 0.782998 0.773419 2.97931 1.22295 0.196916 0.185703 0.000384869
threshold=1.0000000180025095e-35 0 84.500000000000014 232.00000000000003 7580.5000000000009 1 4550.5000000000009 153.00000000000003 99.500000000000014 2538.0000000000005 3245.0000000000005 64.000000000000014 5672.0000000000009 187.50000000000003 1996.5000000000002 137.50000000000003 118.50000000000001 2 79.000000000000014 1471.0000000000002
decision_type=2 1 2 2 2 1 2 2 2 2 2 2 2 2 2 2 2 1 2 2
left_child=14 7 11 4 5 6 9 8 18 -4 -11 -3 -8 -9 16 -16 -1 19 -2 -10
right_child=1 2 3 -5 -6 -7 12 13 17 10 -12 -13 -14 -15 15 -17 -18 -19 -20 -21
leaf_value=-0.064399631036924879 0.032038175518497018 0.0036338219370504812 7.1444331452990423e-05 -0.016734830094427122 0.06608874651510771 -0.027980953964976314 -0.017981941724949827 -0.0013460133933221089 0.062726788518414567 0.064635073991658631 0.024561150726168754 -0.037268949170472368 0.015595703369057551 0.027741886542528904 -0.0054594471287477443 -0.059369914889318434 -0.038585555257808685 0.047738780653475248 0.017020373382486288 0.062022149097132918
leaf_weight=9.6363054811954552 4.3045179396867805 5.2868019044399244 3.7947790473699596 5.6625791490077964 3.6427302956581107 4.4772688597440782 3.9918165355920783 4.3022833317518216 3.389587059617039 5.0386586189270002 6.9976551085710526 4.6868079006671906 3.8309019058942795 5.0048944056034088 4.6735360622405988 5.6743416041135788 8.7580656558275205 3.2705179154872912 3.9450443834066391 4.524549663066864
leaf_count=39 23 26 21 27 20 21 20 22 21 29 37 20 20 26 20 23 36 20 21 29
internal_value=0.000167723 0.0175769 0.00740398 0.0135292 0.0189227 0.0128151 0.0205371 0.0343574 0.043965 0.0314454 0.041337 -0.0155872 -0.00153847 0.0142959 -0.0459571 -0.0350217 -0.0521088 0.0580591 0.0248565 0.0623239
internal_weight=104.894 76.1514 47.41 37.4364 31.7738 28.1311 23.6538 28.7414 19.4342 15.8311 12.0363 9.97361 7.82272 9.30718 28.7422 10.3479 18.3944 11.1847 8.24956 7.91414
internal_count=521 403 241 195 168 148 127 162 114 87 66 46 40 48 118 43 75 70 44 50
cat_boundaries=0 1 2 3
cat_threshold=2 2 2
is_linear=0
shrinkage=0.05


Tree=10
num_leaves=22
num_cat=5
split_feature=4 10 2 2 0 5 2 0 2 6 0 0 2 0 6 0 2 1 0 5 1
split_gain=30.4067 4.85023 2.42417 2.22847 3.4822 3.2145 2.11886 2.11408 2.0573 1.92587 1.84647 1.83563 1.48189 0.794521 0.772711 1.3652 2.39319 0.74381 0.358237 0.216699 0.000373008
threshold=1.0000000180025095e-35 0 84.500000000000014 232.00000000000003 7580.5000000000009 1 153.00000000000003 4550.5000000000009 99.500000000000014 2 2538.0000000000005 3245.0000000000005 64.000000000000014 5672.0000000000009 3 4074.0000000000005 118.50000000000001 1996.5000000000002 3559.5000000000005 4 1471.0000000000002
decision_type=2 1 2 2 2 1 2 2 2 9 2 2 2 2 9 2 2 2 2 1 2
left_child=14 6 12 4 5 7 8 10 9 -2 -4 -12 -3 -9 15 16 -1 -8 -16 -10 -21
right_child=1 2 3 -5 -6 -7 17 13 19 -11 11 -13 -14 -15 18 -17 -18 -19 -20 20 -22
leaf_value=-0.023230151048044989 0.0015989736262083587 0.0034577039892401042 6.7875267416407658e-05 -0.015790615861757961 0.065067038905180036 -0.026297860351968863 0.0010682221138867685 -0.016946326979400832 0.045819227785055212 0.050392534995780863 0.063723305451588982 0.023622940296554151 -0.03508136825685803 0.01493012183219649 -0.044917132698875428 -0.021961097152209289 -0.070606295662674498 0.029631469050928595 -0.063823162838743897 0.061997115073809166 0.061299707267396059
leaf_weight=4.8725188374519366 4.4216463118791633 5.2784961462020856 3.7946384698152569 5.7001230865716925 3.518092915415763 4.5243711024522844 5.1619974225759488 4.0231420695781699 3.0162014067173004 3.7267613410949707 4.859749570488928 6.9139686077833176 4.7289794087409973 3.8023437857627869 4.8639256507158297 8.0898771584033948 5.8852998316287994 4.0812563300132751 5.1676320731639862 3.4262597411870939 4.3533167093992233
leaf_count=20 22 26 21 27 20 21 26 20 19 22 29 37 20 20 20 33 24 22 21 22 29
internal_value=0.000175092 0.0168977 0.00708748 0.0129732 0.0181888 0.0122814 0.0333054 0.0197427 0.042881 0.0239152 0.0303992 0.0401749 -0.0147537 -0.0014578 -0.0434457 -0.0374789 -0.0491483 0.01368 -0.0546563 0.057196 0.0616069
internal_weight=104.211 75.3313 47.1439 37.1364 31.4363 27.9182 28.1874 23.3938 18.9442 8.14841 15.5684 11.7737 10.0075 7.82549 28.8793 18.8477 10.7578 9.24325 10.0316 10.7958 7.77958
internal_count=521 403 241 195 168 148 162 127 114 44 87 66 46 40 118 77 44 48 41 70 51
cat_boundaries=0 1 2 3 4 5
cat_threshold=2 2 1 4 1
is_linear=0
shrinkage=0.05


Tree=11
num_leaves=21
num_cat=2
split_feature=4 6 2 2 1 0 2 1 1 0 0 0 2 0 5 0 0 0 1 2
split_gain=27.4532 3.60947 1.73576 2.94878 1.67418 3.61018 2.53619 1.17383 2.13267 3.92238 1.03635 0.979059 2.41025 0.776117 1.37663 1.51142 2.09095 0.599077 0.204559 0.00120686
threshold=1.0000000180025095e-35 0 84.500000000000014 126.50000000000001 2216.5000000000005 5145.0000000000009 169.00000000000003 2536.0000000000005 1293.5000000000002 3618.5000000000005 4300.5000000000009 7183.5000000000009 113.50000000000001 5404.0000000000009 1 2816.0000000000005 3559.5000000000005 9245.0000000000018 1996.5000000000002 104.50000000000001
decision_type=2 9 2 2 2 2 2 2 2 2 2 2 2 2 1 2 2 2 2 2
left_child=13 7 -3 10 5 -5 -6 8 9 -2 18 12 -11 14 -1 -16 -17 -7 19 -4
right_child=1 2 3 4 6 17 -8 -9 -10 11 -12 -13 -14 -15 15 16 -18 -19 -20 -21
leaf_value=-0.014185689421593648 -0.028570923553519006 0.00078069055036700935 0.062750709642217947 -0.024562253980168001 0.063175730838639602 0.014720394781993646 0.01245985103382753 -0.023469312921542154 0.035981778790811041 0.00071184142845675147 0.025555056752853574 -0.0035557259070880111 0.054517897375742488 -0.054460175601501695 -0.021998613073343744 -0.07706146619886689 -0.032188425820753507 0.038256311352804828 0.046491091343109338 0.061373611001647954
leaf_weight=5.3560976386070251 7.812610402703295 6.3645897358655921 3.2216437011957151 5.3002746403217378 4.4896305203437787 5.7537351250648481 5.4666029810905457 3.8034724593162528 4.8856291174888602 4.3494623750448209 3.6437808722257605 4.0293955802917472 3.9912284910678864 7.8945727795362464 5.3724159151315751 5.2017497867345792 5.1824555397033691 5.10043004155159 3.1494672447443008 3.1432677060365677
leaf_count=22 37 32 20 27 28 31 29 20 27 22 20 20 22 32 22 21 21 27 20 21
internal_value=0.000182271 0.0162491 0.0250028 0.0289287 0.0192022 0.00926273 0.0353295 0.00241334 0.00634036 -0.000834943 0.0482296 0.0166823 0.0264594 -0.0410854 -0.0360842 -0.0435281 -0.0546666 0.02578 0.0569135 0.0620706
internal_weight=103.513 74.5052 45.6334 39.2688 26.1107 16.1544 9.95623 28.8718 25.0683 20.1827 13.1582 12.3701 8.34069 29.0073 21.1127 15.7566 10.3842 10.8542 9.51438 6.36491
internal_count=521 403 255 223 142 85 57 148 128 101 81 64 44 118 86 64 42 58 61 41
cat_boundaries=0 1 2
cat_threshold=1 1
is_linear=0
shrinkage=0.05


Tree=12
num_leaves=20
num_cat=3
split_feature=4 6 2 2 1 0 2 0 1 0 0 9 6 0 2 0 0 1 2
split_gain=24.8073 3.34096 1.62015 2.8273 1.56989 3.27709 2.45321 1.23885 4.55955 3.21319 1.02285 0.880278 0.735963 1.23217 2.08028 0.562359 0.3002 0.20568 0.000999676
threshold=1.0000000180025095e-35 0 84.500000000000014 126.50000000000001 2216.5000000000005 5145.0000000000009 169.00000000000003 4594.5000000000009 1293.5000000000002 3618.5000000000005 4300.5000000000009 1 2 4074.0000000000005 118.50000000000001 9245.0000000000018 3559.5000000000005 1996.5000000000002 104.50000000000001
decision_type=2 9 2 2 2 2 2 2 2 2 2 1 9 2 2 2 2 2 2
left_child=12 7 -3 10 5 -5 -6 8 9 -2 17 -9 13 14 -1 -7 -14 18 -4
right_child=1 2 3 4 6 15 -8 11 -10 -11 -12 -13 16 -15 -16 -17 -18 -19 -20
leaf_value=-0.02004713393798821 -0.026858502842289158 0.00074190147123732834 0.061977102672224463 -0.023079377515175886 0.062381701388308154 0.014090564063235856 0.011911258667870841 -0.02298405849460073 0.043364472819787142 0.028670350102690742 0.024602938512325884 0.0068865276080021486 -0.040927296393524715 -0.018418927982411116 -0.064064772149974233 0.037046929446126128 -0.058167344434932801 0.045473968497257392 0.060699359183876478
leaf_weight=4.9006339758634585 7.8930371999740654 6.3625381737947455 3.1017998456954938 5.3572629839181962 4.3236437588930112 5.7114769667386991 5.4333274662494659 6.399372383952139 6.6057720035314551 3.8886900991201401 3.5967727899551383 4.0132343620061874 4.900034114718439 8.1466241776943189 5.9347093552350998 5.0060182958841324 5.209758460521698 3.061174675822258 3.0223366171121597
leaf_count=20 37 32 20 27 28 31 29 32 37 21 20 21 20 33 24 27 21 20 21
internal_value=0.000187201 0.0156058 0.0241202 0.0279723 0.0184551 0.00885197 0.0342764 0.00230917 0.0101129 -0.00853059 0.0472059 -0.0114713 -0.0389143 -0.0331105 -0.0441564 0.0248132 -0.0498114 0.0560567 0.0613465
internal_weight=102.868 73.7765 44.9764 38.6138 25.8317 16.0748 9.75697 28.8001 18.3875 11.7817 12.7821 10.4126 29.0918 18.982 10.8353 10.7175 10.1098 9.18531 6.12414
internal_count=521 403 255 223 142 85 57 148 95 58 81 53 118 77 44 58 41 61 41
cat_boundaries=0 1 2 3
cat_threshold=1 1 4
is_linear=0
shrinkage=0.05


Tree=13
num_leaves=22
num_cat=2
split_feature=10 8 2 1 0 0 0 1 1 3 0 0 0 2 2 2 0 1 0 1 0
split_gain=4.38573 2.82295 2.47484 2.44108 2.03741 4.16339 6.4395 3.35879 2.95726 1.95412 2.4403 3.3533 2.89566 2.45795 1.68275 3.88034 1.63186 1.57337 1.44029 0.72714 0.196426
threshold=0 1 94.500000000000014 1239.5000000000002 2038.0000000000002 3336.5000000000005 3691.5000000000005 2034.5000000000002 2085.0000000000005 330.00000000000006 4163.0000000000009 4729.0000000000009 3155.5000000000005 158.50000000000003 118.50000000000001 189.50000000000003 2759.5000000000005 2009.0000000000002 5705.5000000000009 1.0000000180025095e-35 3671.0000000000005
decision_type=1 1 2 2 2 2 2 2 2 2 2 2 2 2 2 2 2 2 2 2 2
left_child=9 4 -3 -4 -2 7 -7 19 14 -1 12 -12 16 -13 -8 18 17 -11 -16 -6 -14
right_child=1 2 3 -5 5 6 8 -9 -10 10 11 13 20 -15 15 -17 -18 -19 -20 -21 -22
leaf_value=-0.018944495567905187 -0.035590321728071153 -0.05818245320578809 0.011455217648795597 -0.034525619500238282 -0.007738142600163072 -0.064369258884984001 -0.011642495966693707 0.058186219664711061 -0.025873820960429041 0.005989065062031361 -0.035542192224730255 0.052092594926562 0.06251458655814246 0.00066475742511530502 0.019514030260406597 -0.01275601288383341 -0.012984880256577522 0.053704023914145908 0.059554904586187507 0.021953421072662373 0.045725720635441156
leaf_weight=3.9561770260334006 4.0594845116138449 4.3026358783245078 5.2524069994688016 6.4080139994621277 4.5125822424888593 4.4099357426166526 6.1317427307367387 4.851694628596305 7.7220559120178214 3.6851768642663973 4.0518540889024726 3.5151245146989805 4.0936528742313376 6.8527875989675522 4.3892971873283368 5.6926410198211661 3.6385202556848526 3.2524885237216949 4.5990469008684158 3.7970862984657288 3.0329810529947281
leaf_count=22 20 19 25 32 20 20 29 27 37 20 21 21 22 34 21 27 19 20 25 20 20
internal_value=0.000191144 -0.0074592 -0.0257727 -0.0138137 -0.00163171 0.00135824 -0.00813845 0.0251298 0.000551796 0.0142134 0.0182971 0.00302748 0.0307349 0.0181008 0.0103564 0.0195446 0.0141352 0.0283586 0.0400017 0.00582936 0.0553695
internal_weight=102.207 66.1286 15.9631 11.6604 50.1656 46.1061 32.9447 13.1614 28.5348 36.0788 32.1226 14.4198 17.7028 10.3679 20.8127 14.681 10.5762 6.93767 8.98834 8.30967 7.12663
internal_count=521 322 76 57 246 226 159 67 139 199 177 76 101 55 102 73 59 40 46 40 42
cat_boundaries=0 1 2
cat_threshold=2 1
is_linear=0
shrinkage=0.05


Tree=14
num_leaves=22
num_cat=3
split_feature=4 10 3 0 0 2 0 10 1 2 2 2 2 1 0 5 0 0 0 0 0
split_gain=22.1262 4.13373 2.12238 2.4854 1.71095 1.89858 3.52817 2.44912 1.89352 2.23869 1.47498 1.39551 1.26032 1.02324 0.755623 1.2012 1.27326 1.86581 0.232843 0.338987 0.0348416
threshold=1.0000000180025095e-35 0 330.00000000000006 4195.5000000000009 2038.0000000000002 84.500000000000014 3245.0000000000005 1 2085.0000000000005 135.50000000000003 140.50000000000003 64.000000000000014 128.50000000000003 1012.0000000000001 5404.0000000000009 2 2816.0000000000005 3559.5000000000005 2499.5000000000005 3155.5000000000005 7940.5000000000009
decision_type=2 1 2 2 2 2 2 1 2 2 2 2 2 2 2 1 2 2 2 2 2
left_child=14 2 -2 18 -3 11 12 10 9 -9 -8 -6 -7 20 15 -1 -17 -18 -4 -20 -5
right_child=1 4 3 13 5 6 7 8 -10 -11 -12 -13 -14 -15 -16 16 17 -19 19 -21 -22
leaf_value=-0.011308438674006441 -0.0057428379496445138 -0.026920161694332367 0.062070868868658424 0.033135894650560598 0.0095979912672949849 0.062488546917275525 0.0055319240173690165 -0.020343679856792356 -0.036544056500865223 0.027090139640305672 0.040887027826787686 -0.030061519833722669 0.021278498593072352 -0.0035065324676562385 -0.049791241412410703 -0.01893642635232072 -0.070032722208793988 -0.027690741106301538 0.034135884742026681 0.054094313778203833 0.026030432689241118
leaf_weight=5.3829157799482346 3.4922306835651424 3.6626771390438071 3.4545456990599659 3.2423990368843061 4.1118731349706632 4.2042327970266333 6.2479633092880249 4.9798185676336271 4.2426084131002435 4.9700908809900284 5.588781863451004 4.8160164803266525 3.3207256197929382 3.5992647111415863 7.9420671463012686 5.391573488712317 5.2065295875072461 5.2004608362913132 3.3406622335314733 5.8584866523742676 3.6871723979711533
leaf_count=22 20 19 23 20 20 27 32 25 22 27 30 20 19 20 32 22 21 21 21 38 20
internal_value=0.000195179 0.0149265 0.0305951 0.036069 0.00586909 0.00869608 0.0141484 0.0054309 -0.00857561 0.00335004 0.022225 -0.0117957 0.0443028 0.0181214 -0.0366386 -0.031707 -0.0386573 -0.0488741 0.0510028 0.0468464 0.0293551
internal_weight=101.943 72.8195 26.6748 23.1825 46.1448 42.4821 33.5542 26.0293 14.1925 9.94991 11.8367 8.92789 7.52496 10.5288 29.1235 21.1815 15.7986 10.407 12.6537 9.19915 6.92957
internal_count=521 403 162 142 241 222 182 136 74 52 62 40 46 60 118 86 64 42 82 59 40
cat_boundaries=0 1 2 3
cat_threshold=2 4 1
is_linear=0
shrinkage=0.05


Tree=15
num_leaves=21
num_cat=3
split_feature=4 10 2 2 6 0 1 0 1 2 2 1 2 2 0 0 5 2 2 0
split_gain=20.0271 3.84485 1.91186 1.99099 1.64517 4.23264 6.42543 2.46265 3.24376 2.23572 0.797664 0.738672 2.46455 1.19533 0.737352 1.4081 0.231838 0.229345 0.0639959 0.00068048
threshold=1.0000000180025095e-35 0 153.00000000000003 99.500000000000014 1 5188.0000000000009 918.00000000000011 5763.0000000000009 1457.5000000000002 172.50000000000003 187.50000000000003 1996.5000000000002 137.50000000000003 118.50000000000001 3361.5000000000005 2538.0000000000005 2 79.000000000000014 80.500000000000014 3893.5000000000005
decision_type=2 1 2 2 9 2 2 2 2 2 2 2 2 2 2 2 1 2 2 2
left_child=11 2 3 17 5 6 -3 8 18 -7 -4 13 -13 -1 15 -8 -5 -2 -6 -18
right_child=1 4 10 16 7 9 14 -9 -10 -11 -12 12 -14 -15 -16 -17 19 -19 -20 -21
leaf_value=-0.052908422542436218 0.02862317438816811 -0.054943368076236759 -0.0052623261131540394 0.042310327125912199 -0.0093324709973441576 0.067098656018909394 0.0073075036904262638 -0.037922153910283626 0.036895363638086792 0.019737100233910634 0.024700683506705096 0.0022543200658923109 -0.046331233365505237 -0.027551967126695266 -0.0009442306189709395 0.048794476632699271 0.059155436595028782 0.011373339442363935 -0.01779870739897543 0.060172541427489415
leaf_weight=9.7021646648645454 4.0857329964637819 4.2862577438354554 4.1317548006772977 2.7242337390780449 4.5192945748567599 4.122621685266493 4.9612106978893262 4.5379448533058158 4.9660841673612586 6.2988466024398804 4.803583636879921 4.795739680528639 5.7272899150848389 8.9218330979347211 4.3426615148782721 3.4798240214586258 4.0219985544681531 3.6468024998903275 4.4103805422782898 2.7818823158740997
leaf_count=39 23 21 22 19 20 23 27 22 27 34 26 20 23 36 23 23 31 21 21 20
internal_value=0.000198316 0.0143337 0.0296195 0.0393382 0.00561464 0.0133639 -0.00196554 -0.00594229 0.00450139 0.0384728 0.0108456 -0.0347782 -0.024189 -0.0407614 0.0157974 0.0244105 0.0546361 0.0204878 -0.013514 0.0595713
internal_weight=101.268 72.1211 26.196 17.2607 45.9251 27.4914 17.07 18.4337 13.8958 10.4215 8.93534 29.147 10.523 18.624 12.7837 8.44103 9.52811 7.73254 8.92968 6.80388
internal_count=521 403 162 114 241 151 94 90 68 57 48 118 43 75 73 50 70 44 41 51
cat_boundaries=0 1 2 3
cat_threshold=2 4 1
is_linear=0
shrinkage=0.05


Tree=16
num_leaves=20
num_cat=3
split_feature=4 6 2 2 1 1 2 0 0 0 1 0 9 6 0 2 0 1 0
split_gain=18.1453 2.84628 1.30994 2.27832 1.53811 2.8065 2.32408 1.44402 1.28596 1.10286 3.85944 2.58248 0.695706 0.669793 1.12743 1.87986 0.248774 0.129892 0.252237
threshold=1.0000000180025095e-35 0 72.500000000000014 126.50000000000001 2216.5000000000005 1424.5000000000002 169.00000000000003 9245.0000000000018 4300.5000000000009 4594.5000000000009 1293.5000000000002 3618.5000000000005 1 2 4074.0000000000005 118.50000000000001 3559.5000000000005 1996.5000000000002 3299.0000000000005
decision_type=2 9 2 2 2 2 2 2 2 2 2 2 1 9 2 2 2 2 2
left_child=13 9 -3 8 5 7 -6 -5 17 10 11 -2 -11 14 15 -1 -15 18 -4
right_child=1 2 3 4 6 -7 -8 -9 -10 12 -12 -13 -14 16 -16 -17 -18 -19 -20
leaf_value=-0.015186706049170315 -0.024029542298806515 -0.0027199026954004917 0.063204197670772219 0.0053792862419966593 0.061067073556704335 -0.025538677625458986 0.010528576341393835 0.042627533243155012 0.017662629644172576 -0.021684841772470455 0.040727245013049661 0.026287184027746675 0.0050612417420687937 -0.03536330151729003 -0.013517401752075917 -0.057057730211008885 -0.05104159630516994 0.042492787042736783 0.043325424126824268
leaf_weight=4.896325811743738 7.9845598340034538 4.817689821124076 4.0349133834242803 6.4124813824892062 3.964257597923277 4.7769866436719886 5.3378511965274811 4.3786900341510773 3.973748803138732 6.4260497540235502 6.2331823855638495 3.7466530203819275 3.9111430495977402 4.9134782403707522 8.1860727816820127 5.9237895309925079 5.2161867171525955 2.7883495688438416 2.6397734880447388
leaf_count=20 37 25 27 35 28 25 29 25 22 32 37 21 21 20 33 24 21 20 19
internal_value=0.000202027 0.013767 0.0218528 0.0249432 0.0159803 0.00636873 0.0320664 0.0204934 0.0415326 0.00144626 0.00893345 -0.00795965 -0.0115653 -0.0330524 -0.027518 -0.0381102 -0.0434367 0.0515561 0.0553423
internal_weight=100.562 71.4263 43.1247 38.3071 24.8703 15.5682 9.30211 10.7912 13.4368 28.3016 17.9644 11.7312 10.3372 29.1359 19.0062 10.8201 10.1297 9.46304 6.67469
internal_count=521 403 255 230 142 85 57 60 88 148 95 58 53 118 77 44 41 66 46
cat_boundaries=0 1 2 3
cat_threshold=1 1 4
is_linear=0
shrinkage=0.05


Tree=17
num_leaves=21
num_cat=2
split_feature=4 10 3 0 0 0 0 6 2 1 2 0 1 0 0 2 1 0 0 0
split_gain=16.4345 3.56799 1.99765 2.36103 1.7077 2.47954 2.68461 5.40254 3.328 2.42644 2.19296 1.83399 0.893429 0.693826 1.19207 1.86173 0.606705 0.241993 0.34587 0.0351466
threshold=1.0000000180025095e-35 0 330.00000000000006 4195.5000000000009 2476.0000000000005 3361.5000000000005 5188.0000000000009 1 108.50000000000001 2034.5000000000002 172.50000000000003 4195.5000000000009 1012.0000000000001 5404.0000000000009 3155.5000000000005 99.500000000000014 1239.5000000000002 2499.5000000000005 3155.5000000000005 7940.5000000000009
decision_type=2 1 2 2 2 2 2 9 2 2 2 2 2 2 2 2 2 2 2 2
left_child=13 2 -2 17 -3 9 8 -8 -7 -6 -9 -10 19 14 15 -1 -16 -4 -19 -5
right_child=1 4 3 12 5 6 7 10 11 -11 -12 -13 -14 -15 16 -17 -18 18 -20 -21
leaf_value=-0.015498473461467741 -0.0072994778545138195 -0.019746269749533054 0.060809599732588607 0.030893976817626415 0.011032108347929859 -0.051082963878576651 -0.026680938846370156 0.065874665378825067 0.024371831805978059 0.061467288187568109 0.018167308373411239 -0.019457726448732671 -0.0039897169460019087 -0.043990023961172769 -0.002529023573593497 -0.057145922501030233 -0.026750613852941613 0.031452129699983782 0.052271225980766813 0.023609970227321711
leaf_weight=4.9077563434839302 3.4278189539909389 6.1252133697271338 3.1725980564951923 3.0958858579397184 6.3901520445942861 4.3251127302646664 5.0165566951036453 3.9486608132719976 4.6300123929977399 3.8045952469110489 6.1768654137849808 4.9260464608669281 3.5755527466535568 7.9603318423032752 5.2162416130304319 5.9203927218914032 5.1257831156253815 3.1463609337806684 5.4513423144817352 3.5609370321035385
leaf_count=20 20 32 23 20 33 20 24 23 25 26 34 24 20 32 21 24 21 21 38 20
internal_value=0.000203539 0.0132141 0.0282049 0.0337361 0.00480656 0.00864131 0.00119008 0.01575 -0.0146924 0.0298541 0.0367718 0.00177816 0.0161695 -0.031406 -0.0266743 -0.0382696 -0.0145339 0.0490075 0.0446524 0.0269975
internal_weight=99.9042 70.7737 25.4305 22.0027 45.3432 39.218 29.0233 15.1421 13.8812 10.1947 10.1255 9.55606 10.2324 29.1305 21.1702 10.8281 10.342 11.7703 8.5977 6.65682
internal_count=521 403 162 142 241 209 150 81 69 59 57 49 60 118 86 44 42 82 59 40
cat_boundaries=0 1 2
cat_threshold=2 1
is_linear=0
shrinkage=0.05


Tree=18
num_leaves=20
num_cat=3
split_feature=4 10 1 1 0 2 10 0 1 1 1 2 1 1 2 10 2 0 0
split_gain=14.8898 3.33791 2.69427 3.30568 4.29319 2.64983 2.56226 2.36046 3.93487 2.75952 2.19793 2.28307 1.0336 0.733707 2.17306 1.18419 2.21732 0.721539 0.229161
threshold=1.0000000180025095e-35 0 4317.0000000000009 1.0000000180025095e-35 4891.0000000000009 158.50000000000003 1 4195.5000000000009 1404.5000000000002 1424.5000000000002 1575.5000000000002 113.50000000000001 2166.5000000000005 1996.5000000000002 137.50000000000003 2 118.50000000000001 2663.5000000000005 3166.5000000000005
decision_type=2 1 2 2 2 2 1 2 2 2 2 2 2 2 2 1 2 2 2
left_child=13 7 3 4 6 -6 -3 8 -2 -9 -5 -12 -13 15 -15 -1 -17 -10 -14
right_child=1 2 -4 10 5 -7 -8 9 17 -11 11 12 18 14 -16 16 -18 -19 -20
leaf_value=-0.054214610055124825 -0.026837695127869328 -0.02901562711511356 -0.022770854368165477 0.065210790223451567 0.057502987319058618 0.010216896813353325 0.015251825112679199 -0.00091319611361177766 0.017974238046909608 -0.052905103082205765 -0.00078791706392622365 0.019214187699875821 0.044068032507269948 0.0053336976316902974 -0.040245001357587525 -0.045444569164850519 -0.0031786501276098184 0.050291164956595483 0.063141734622172221
leaf_weight=5.9490781873464584 3.9518520236015338 7.033089354634285 3.4123898968100539 5.5748207718133953 5.7288396507501584 6.1360269635915756 6.1074711009860057 7.0374574139714223 3.1630852296948433 4.0042790174484253 4.6019005179405204 3.259806774556635 3.0575212612748146 4.8385293483734113 5.6908338367938995 7.1739017963409477 5.4683520793914795 3.8047609105706215 3.2471757978200912
leaf_count=24 19 32 20 34 34 33 38 37 19 20 29 20 23 20 23 29 22 24 21
internal_value=0.000206932 0.0126879 0.0200546 0.0233205 0.0112454 0.0330485 -0.008441 -0.00346663 0.013017 -0.019768 0.0386156 0.0281497 0.0420728 -0.0298463 -0.0193003 -0.035819 -0.0271626 0.0356208 0.0538918
internal_weight=99.2412 70.1205 48.159 44.7467 25.0054 11.8649 13.1406 21.9614 10.9197 11.0417 19.7412 14.1664 9.5645 29.1207 10.5294 18.5913 12.6423 6.96785 6.3047
internal_count=521 403 284 264 137 67 70 119 62 57 127 93 64 118 43 75 51 43 44
cat_boundaries=0 1 2 3
cat_threshold=1 4 2
is_linear=0
shrinkage=0.05


Tree=19
num_leaves=21
num_cat=4
split_feature=4 10 3 0 0 0 0 6 1 1 2 1 1 2 2 10 10 0 0 0
split_gain=13.5094 3.11713 1.85405 2.31495 1.5968 2.26797 2.40306 4.81717 3.66958 2.25628 2.05979 0.803926 0.663905 1.97022 1.08503 1.1479 0.321547 0.249841 0.343524 0.0280675
threshold=1.0000000180025095e-35 0 330.00000000000006 4195.5000000000009 2476.0000000000005 3361.5000000000005 4927.0000000000009 1 1515.0000000000002 2034.5000000000002 172.50000000000003 1012.0000000000001 1996.5000000000002 137.50000000000003 128.50000000000003 2 3 2499.5000000000005 3155.5000000000005 7940.5000000000009
decision_type=2 1 2 2 2 2 2 9 2 2 2 2 2 2 2 1 1 2 2 2
left_child=12 2 -2 17 -3 9 8 -8 16 -6 -9 19 14 -14 15 -1 -7 -4 -19 -5
right_child=1 4 3 11 5 6 7 10 -10 -11 -12 -13 13 -15 -16 -17 -18 18 -20 -21
leaf_value=-0.024483026089479606 -0.0077335109851515054 -0.019360822759183674 0.05994811383791529 0.028596507881820516 0.010817547721763472 -0.022177615055893586 -0.02223421057775879 0.064481054465365395 0.026477697454239391 0.060478523323743275 0.017496242630131362 -0.0046086877342916919 0.0050710856245053454 -0.03837321546485517 -0.017575411673271056 -0.05581143829717964 -0.040689212435112532 0.029756639433237909 0.050921876292231431 0.021971925022321519
leaf_weight=4.9589243531227112 3.4112363755702999 6.1363359987735739 2.9929870665073421 2.9611949175596219 6.3495421856641752 4.6398395001888275 5.7216168344020844 3.7698392197489721 3.8414930999279013 3.5749307125806808 6.1186405867338181 3.5534733980894089 4.8347413092851621 5.6705160290002823 6.4636897295713416 7.1251882463693672 4.7446583807468432 3.0466046854853612 5.1711757555603981 3.4755989611148834
leaf_count=20 20 32 23 20 33 22 27 23 22 26 34 20 20 23 26 29 22 21 38 20
internal_value=0.000210055 0.0121777 0.0264784 0.0319831 0.00433808 0.00808994 0.000994507 0.0142806 -0.0146865 0.0287061 0.0354085 0.014481 -0.0284224 -0.0183792 -0.0341107 -0.0429553 -0.0315368 0.0475798 0.0430752 0.0250195
internal_weight=98.5622 69.5092 24.6123 21.201 44.8969 38.7606 28.8361 15.6101 13.226 9.92447 9.88848 9.99027 29.0531 10.5053 18.5478 12.0841 9.3845 11.2108 8.21778 6.43679
internal_count=521 403 162 142 241 209 150 84 66 59 57 60 118 43 75 49 44 82 59 40
cat_boundaries=0 1 2 3 4
cat_threshold=2 1 4 4
is_linear=0
shrinkage=0.05


Tree=20
num_leaves=22
num_cat=2
split_feature=4 6 2 0 2 2 1 0 1 0 0 1 2 2 2 0 5 0 0 1 2
split_gain=12.262 2.28725 1.1822 2.53558 1.97144 2.65936 4.11746 1.398 1.15077 1.47602 2.48632 2.43379 1.84143 1.10557 1.0934 0.630337 1.14449 1.23547 1.70522 0.262406 0.00136489
threshold=1.0000000180025095e-35 0 256.50000000000006 6391.5000000000009 84.500000000000014 126.50000000000001 2216.5000000000005 4300.5000000000009 2536.0000000000005 4729.0000000000009 7183.5000000000009 1293.5000000000002 72.500000000000014 142.50000000000003 169.00000000000003 5404.0000000000009 1 2816.0000000000005 3559.5000000000005 1996.5000000000002 104.50000000000001
decision_type=2 9 2 2 2 2 2 2 2 2 2 2 2 2 2 2 1 2 2 2 2
left_child=15 8 3 4 -3 7 13 19 9 11 -11 12 -2 -7 -8 16 -1 -18 -19 20 -6
right_child=1 2 -4 -5 5 6 14 -9 -10 10 -12 -13 -14 -15 -16 -17 17 18 -20 -21 -22
leaf_value=-0.0027256674067310605 0.0099224979303777737 -0.010498192569065463 -0.0038262245564548466 0.054108302450904124 0.060037976450642475 -0.03387648730741754 0.059563621277862945 0.010874374474652849 -0.025513815945162367 0.05332126352714435 -0.0042579029103093505 0.028760774316538881 -0.029997923773462987 0.0024466097395747029 0.018571615335592651 -0.03909737108254957 -0.010024606463790761 -0.060164451651184017 -0.01937902340514594 0.039649068339312733 0.058417289867589421
leaf_weight=5.4079528450965881 4.6220571845769971 5.4463784843683269 4.9151255488395682 5.3427273109555236 2.6853966563940066 3.7921703159809095 3.2546055838465682 2.6717854738235474 3.6603578850626937 3.55401487648487 3.9681895673274994 4.2736691311001769 7.7029018700122833 4.6804984658956528 3.2524183392524719 7.9253517985343924 5.3879345059394899 5.0820486694574338 5.1698290258646011 2.5403389409184456 2.5164422243833542
leaf_count=22 22 28 26 34 20 20 26 15 20 20 20 27 39 26 19 32 22 21 21 20 21
internal_value=0.00021174 0.0116912 0.0191823 0.0223078 0.0167987 0.0226533 0.00916205 0.0420595 0.00060919 0.00457338 0.0229465 -0.003753 -0.0150271 -0.0138108 0.0390745 -0.0270788 -0.0225533 -0.0294094 -0.0395971 0.0528213 0.059254
internal_weight=97.8522 68.8791 41.0979 36.1828 30.84 25.3937 14.9797 10.414 27.7812 24.1208 7.5222 16.5986 12.325 8.47267 6.50702 28.9731 21.0478 15.6398 10.2519 7.74218 5.20184
internal_count=521 403 255 229 195 167 91 76 148 128 40 88 61 46 45 118 86 64 42 61 41
cat_boundaries=0 1 2
cat_threshold=1 1
is_linear=0
shrinkage=0.05


Tree=21
num_leaves=19
num_cat=4
split_feature=4 10 6 0 0 1 0 1 1 1 2 1 10 6 0 2 2 0
split_gain=11.1254 2.86579 2.41099 2.1332 2.25169 2.07522 2.06996 3.37083 2.41713 1.31101 1.37446 1.25 0.93574 0.652017 1.05035 1.66451 0.506846 0.211726
threshold=1.0000000180025095e-35 0 1 4729.0000000000009 3336.5000000000005 3716.5000000000005 4195.5000000000009 1847.0000000000002 1424.5000000000002 1.0000000180025095e-35 133.50000000000003 1575.5000000000002 2 3 4074.0000000000005 118.50000000000001 142.50000000000003 3559.5000000000005
decision_type=2 1 9 2 2 2 2 2 2 2 2 2 1 9 2 2 2 2
left_child=13 6 3 4 -3 9 7 -2 -8 10 -4 -11 -13 14 15 -1 -14 -15
right_child=1 2 5 -5 -6 -7 8 -9 -10 11 -12 12 16 17 -16 -17 -18 -19
leaf_value=-0.0090433651923213527 -0.014133660486301486 0.011005187069126217 0.036871400223540782 0.030529414680420391 -0.031327891955005946 -0.0099404871871871994 -0.0011287740773812411 0.042253484038429621 -0.049661173643017816 0.063756998765856332 0.00085552583381271667 0.012997399765300935 0.05809794586250952 -0.028621499803767173 -0.0068085578802722369 -0.048662274791428539 0.029138236537248854 -0.043143149427723827
leaf_weight=4.8675196021795291 5.7357859164476412 7.3642010837793368 5.2940723150968605 5.3487335443496695 5.477584682404995 3.3032317385077468 6.9795655831694585 4.9272601008415222 4.0566728860139847 4.5328063964843741 5.3019604459404945 3.9044309332966805 3.1906354054808599 4.8902869224548358 8.1698341965675336 5.8220002055168152 2.8698330447077751 5.1570111513137817
leaf_count=20 29 39 34 30 31 19 37 33 20 30 30 25 28 20 33 24 18 21
internal_value=0.000213494 0.0112198 0.0182103 0.00399862 -0.00705173 0.0273141 -0.00378866 0.0119221 -0.0189682 0.0322181 0.0188501 0.0419885 0.0320865 -0.0257869 -0.0203059 -0.0306216 0.0443846 -0.0360751
internal_weight=97.1934 68.2868 46.5875 18.1905 12.8418 28.397 21.6993 10.663 11.0362 25.0937 10.596 14.4977 9.9649 28.9067 18.8594 10.6895 6.06047 10.0473
internal_count=521 403 284 100 70 184 119 62 57 165 64 101 71 118 77 44 46 41
cat_boundaries=0 1 2 3 4
cat_threshold=1 1 4 4
is_linear=0
shrinkage=0.05


Tree=22
num_leaves=21
num_cat=1
split_feature=4 6 2 2 1 1 2 0 0 1 0 0 1 2 1 2 2 2 1 0
split_gain=10.0894 1.96502 1.09235 2.07098 1.28746 2.32784 2.09824 1.42445 1.26167 1.0197 1.23063 2.35985 2.14369 1.5686 0.627644 1.7874 1.06679 0.926523 0.154494 0.269271
threshold=1.0000000180025095e-35 0 72.500000000000014 126.50000000000001 2216.5000000000005 1424.5000000000002 169.00000000000003 9245.0000000000018 4300.5000000000009 2536.0000000000005 4729.0000000000009 7183.5000000000009 1293.5000000000002 72.500000000000014 1996.5000000000002 137.50000000000003 128.50000000000003 102.50000000000001 1996.5000000000002 3299.0000000000005
decision_type=2 9 2 2 2 2 2 2 2 2 2 2 2 2 2 2 2 2 2 2
left_child=14 9 -3 8 5 7 -6 -5 18 10 12 -12 13 -2 16 -16 17 -1 19 -4
right_child=1 2 3 4 6 -7 -8 -9 -10 -11 11 -13 -14 -15 15 -17 -18 -19 -20 -21
leaf_value=-0.02541766324290148 0.0094706075178003866 -0.0048120759272848842 0.061552660798527829 0.0014615936396608145 0.058818616647174894 -0.025624349611569543 0.0077695150552857363 0.039597825462242865 0.013632197448200628 -0.023971784389812255 0.051665619715586565 -0.0050919682962079814 0.02766979006440877 -0.02728605454625559 0.0074486846751443368 -0.034017538001220364 -0.013734837315257398 -0.053284450871462968 0.037966410960718733 0.039558315794356022
leaf_weight=6.1352065056562477 4.6096861958503812 4.7015050798654547 3.5798676311969739 6.0859834924340266 3.3087761849164945 4.7362833917140952 5.1394371688365936 4.0968456938862801 3.7440703734755507 3.6867310851812354 3.4222677871584883 3.9395668655633926 4.191052019596099 7.8375834077596664 4.8505302965641004 5.5981580466032028 6.4537678360939017 5.8050756454467773 2.4117524921894073 2.2765066996216774
leaf_count=25 22 25 27 35 28 25 29 25 22 20 20 20 27 39 20 23 26 24 20 19
internal_value=0.000213474 0.0107548 0.0178312 0.0208402 0.0121668 0.00333513 0.0277631 0.0168049 0.0377126 0.000510756 0.00427159 0.0212927 -0.00325962 -0.0136737 -0.0245542 -0.0147679 -0.0301132 -0.0389658 0.0486169 0.053003
internal_weight=96.6107 67.7679 40.081 35.3795 23.3673 14.9191 8.44821 10.1828 12.0122 27.6869 24.0002 7.36183 16.6383 12.4473 28.8427 10.4487 18.394 11.9403 8.26813 5.85637
internal_count=521 403 255 230 142 85 57 60 88 148 128 40 88 61 118 43 75 49 66 46
cat_boundaries=0 1
cat_threshold=1
is_linear=0
shrinkage=0.05


Tree=23
num_leaves=20
num_cat=5
split_feature=4 10 3 2 6 2 2 1 8 1 10 1 2 6 2 2 2 2 1
split_gain=9.15977 2.70595 1.76984 2.22003 1.36274 1.05691 1.5625 1.39484 1.7899 1.29171 1.80765 1.65821 0.810152 0.586312 0.668765 0.723712 0.577466 0.048885 0.00163721
threshold=1.0000000180025095e-35 0 330.00000000000006 158.50000000000003 1 262.50000000000006 175.50000000000003 918.00000000000011 2 2140.0000000000005 3 3006.5000000000005 99.500000000000014 4 158.50000000000003 120.50000000000001 116.50000000000001 113.50000000000001 1575.5000000000002
decision_type=2 1 2 2 9 2 2 2 1 2 1 2 2 9 2 2 2 2 2
left_child=13 2 -2 4 18 6 7 8 -3 10 -9 -11 -6 14 15 -1 -10 -15 -4
right_child=1 5 3 -5 12 -7 -8 9 16 11 -12 -13 -14 17 -16 -17 -18 -19 -20
leaf_value=-0.014887000656260727 -0.009737064648395773 -0.033501147695890958 0.058700961762561621 0.006449490358128575 0.0090700193637680612 -0.020560000550256516 0.030256831385757889 0.045544080258056112 -0.006507196111106818 -0.02671213793728688 0.0016647772758233846 0.02103073005591348 0.043717517469290666 -0.029605250801707034 -0.0054999227417546169 -0.039709038302947371 0.015828693649973132 -0.036606339228172767 0.057111374176870122
leaf_weight=7.0542816668748873 3.3249139487743404 5.0315780937671661 3.3800667747855186 6.8098654523491851 3.482114642858507 4.2981995344161978 5.5067189782857886 4.8097486570477486 7.7040743976831454 3.8092922270297995 4.5841627418994921 3.4803581908345222 3.2730914950370789 4.8508457243442553 6.6736576259136191 5.0306172221899033 4.6345225349068642 5.1304170042276382 3.1105305776000023
leaf_count=29 20 24 28 39 19 21 32 28 36 24 28 23 26 20 27 21 25 21 30
internal_value=0.000212708 0.0103112 0.024049 0.0296502 0.041578 0.00298767 0.0055461 0.0015502 -0.00836705 0.0118756 0.0241313 -0.00391786 0.0258577 -0.0234135 -0.0182041 -0.0252197 0.00188243 -0.0332038 0.0579392
internal_weight=95.9791 67.2392 23.3806 20.0557 13.2458 43.8587 39.5605 34.0537 17.3702 16.6836 9.39391 7.28965 6.75521 28.7398 18.7586 12.0849 12.3386 9.98126 6.4906
internal_count=521 403 162 142 103 241 220 188 85 103 56 47 45 118 77 50 61 41 58
cat_boundaries=0 1 2 3 4 5
cat_threshold=2 4 2 4 4
is_linear=0
shrinkage=0.05


Tree=24
num_leaves=20
num_cat=4
split_feature=4 10 0 0 1 0 6 1 2 2 2 6 2 0 0 2 1 10 1
split_gain=8.30709 2.50961 1.69599 1.90796 2.18216 1.97631 4.48266 2.8459 1.95798 1.57181 2.03301 2.17902 0.881473 0.626569 1.12147 1.54066 0.704917 0.182429 0.00193642
threshold=1.0000000180025095e-35 0 2476.0000000000005 3361.5000000000005 2034.5000000000002 4927.0000000000009 1 1515.0000000000002 172.50000000000003 153.00000000000003 112.50000000000001 2 187.50000000000003 5404.0000000000009 3155.5000000000005 99.500000000000014 1239.5000000000002 3 1471.0000000000002
decision_type=2 1 2 2 2 2 9 2 2 2 2 9 2 2 2 2 2 1 2
left_child=13 9 -3 4 -4 7 -7 17 -8 10 11 -2 -11 14 15 -1 -16 -5 -12
right_child=1 2 3 5 -6 6 8 -9 -10 12 18 -13 -14 -15 16 -17 -18 -19 -20
leaf_value=-0.008412471969213008 -0.0028059179431406739 -0.021896179493906234 0.0087663229341463905 -0.021182978343102614 0.059347167031911854 -0.022621426717404892 0.06303463633146493 0.023622185986697731 0.016097070937754199 -0.011509848982859993 0.058305739256898019 0.046482508704336817 0.020959228777258879 -0.034333045278169876 0.0071549312739487758 -0.046593339523333957 -0.019162358632372048 -0.035036946410762389 0.056420894983662755
leaf_weight=4.8750693351030403 5.129102990031245 5.9761864840984336 6.1664335727691633 4.6288680881261826 3.2594194337725639 5.6652508527040482 3.5384403765201551 3.6535108834505072 5.9711512252688408 3.8635110035538656 2.6312563046813002 3.9842757731676093 4.5544071644544601 7.8512356579303733 5.1325654834508878 5.7684419304132462 5.0460044741630554 4.8827681839466113 2.8263603299856186
leaf_count=20 30 32 33 22 26 27 23 22 34 22 22 33 26 32 21 24 21 22 29
internal_value=0.000211602 0.00988293 0.00285351 0.00676998 0.026257 0.000288628 0.012587 -0.0138872 0.0335622 0.0232581 0.0331954 0.0187425 0.00605713 -0.0222963 -0.0177577 -0.0291053 -0.00589181 -0.0282949 0.0573296
internal_weight=95.4043 66.7309 43.742 37.7658 9.42585 28.34 15.1748 13.1651 9.50959 22.9889 14.571 9.11338 8.41792 28.6733 20.8221 10.6435 10.1786 9.51164 5.45762
internal_count=521 403 241 209 59 150 84 66 57 162 114 63 48 118 86 44 42 44 51
cat_boundaries=0 1 2 3 4
cat_threshold=2 1 1 4
is_linear=0
shrinkage=0.05


Tree=25
num_leaves=21
num_cat=2
split_feature=4 10 3 0 0 2 0 1 0 0 10 0 0 0 0 1 2 2 0 0
split_gain=7.53931 2.32264 1.67533 2.26767 1.54389 1.41779 2.50137 2.54272 1.80692 1.60722 1.39461 1.61043 0.915481 0.806672 0.814281 0.596432 1.63017 1.06575 0.266167 0.569386
threshold=1.0000000180025095e-35 0 330.00000000000006 3866.0000000000005 2038.0000000000002 289.00000000000006 7940.5000000000009 1611.0000000000002 4927.0000000000009 3996.5000000000005 1 3422.5000000000005 2591.5000000000005 4729.0000000000009 8076.0000000000009 1996.5000000000002 137.50000000000003 118.50000000000001 3155.5000000000005 2499.5000000000005
decision_type=2 1 2 2 2 2 2 2 2 2 1 2 2 2 2 2 2 2 2 2
left_child=15 2 -2 18 -3 6 7 8 10 12 -6 -12 -9 -5 -15 17 -17 -1 19 -4
right_child=1 4 3 13 5 -7 -8 9 -10 -11 11 -13 -14 14 -16 16 -18 -19 -20 -21
leaf_value=-0.03839889632960819 -0.010472934706379115 -0.028659606244361448 0.058276857710247834 -0.0058973850673143032 -0.032110704296470331 -0.024625244421254845 0.043793202439151128 0.014704167275188735 0.018713577555730349 -0.0055732316508381426 0.019616378815243075 -0.02279854391550501 0.050166211077971604 0.038168177444263041 0.0048323656926052699 0.0094145922251832118 -0.030279914013121741 -0.014199600135600052 0.059690166053782093 0.025307036995099348
leaf_weight=9.4005154520273262 3.2934230193495777 3.5926576852798453 2.5104089900851267 3.6653910949826223 6.7945050746202496 3.5450965017080298 4.4116641655564299 3.0374656617641431 5.3034558072686186 3.3648872524499893 4.3769328147172946 4.5793359577655792 4.5404832884669304 3.9744523391127586 3.3980550244450569 4.8687179386615735 5.5178755521774292 8.8172643184661847 3.0301877781748772 2.7375182211399078
leaf_count=39 20 19 23 26 31 17 27 20 31 18 22 22 34 26 21 20 23 36 25 21
internal_value=0.000213164 0.0094869 0.0224888 0.0281089 0.00273626 0.00555938 0.00849844 0.0036321 -0.00652944 0.0231831 -0.015029 -0.00207035 0.035952 0.0132726 0.0228034 -0.021235 -0.0116731 -0.0266866 0.0478913 0.0410785
internal_weight=94.7603 66.1559 22.6094 19.316 43.5465 39.9538 36.4087 31.9971 21.0542 10.9428 15.7508 8.95627 7.57795 11.0379 7.37251 28.6044 10.3866 18.2178 8.27811 5.24793
internal_count=521 403 162 142 241 222 205 178 106 72 75 44 54 73 47 118 43 75 69 44
cat_boundaries=0 1 2
cat_threshold=2 1
is_linear=0
shrinkage=0.05


Tree=26
num_leaves=22
num_cat=4
split_feature=4 10 3 0 0 0 0 1 1 8 0 2 1 0 5 10 0 2 1 0 2
split_gain=6.8467 2.14465 1.55393 2.20038 1.41388 1.65248 2.15694 2.08864 1.74848 2.0238 2.77063 2.681 0.705406 0.557786 1.11171 1.25371 0.536689 0.262078 0.302605 0.0183789 3.09575e-05
threshold=1.0000000180025095e-35 0 330.00000000000006 4195.5000000000009 2476.0000000000005 3361.5000000000005 3691.5000000000005 2034.5000000000002 2085.0000000000005 1 4752.5000000000009 193.00000000000003 1012.0000000000001 5404.0000000000009 2 3 3084.5000000000005 96.500000000000014 2334.5000000000005 7940.5000000000009 118.50000000000001
decision_type=2 1 2 2 2 2 2 2 2 1 2 2 2 2 1 1 2 2 2 2 2
left_child=13 2 -2 17 -3 7 -7 -6 9 10 -8 -12 19 14 -1 -16 -17 -4 20 -5 -19
right_child=1 4 3 12 5 6 8 -9 -10 -11 11 -13 -14 -15 15 16 -18 18 -20 -21 -22
leaf_value=0.0035955224300192982 -0.0098920304884663954 -0.019756646500365613 0.032743574274623828 0.023467697894555842 0.0078547572165133354 -0.036491965671086028 -0.0100771569832199 0.05853867575564075 -0.01939523021381118 -0.017115143742481374 0.056646006378628128 0.0033994525816701416 -0.0081442015358375447 -0.031655190517574365 -0.042705284823702457 -0.02364055923774273 -0.00056791050182884533 0.057726444000547321 0.034563904441119418 0.017867803875020703 0.05799949483396058
leaf_weight=5.3783821612596512 3.3119943812489536 6.0711374655365935 3.3584008440375346 2.6575600504875165 6.1114292666316015 3.4963770508766201 4.7250115573406193 3.0456186905503273 5.4936193004250518 4.4104275852441868 6.2066125422716123 3.8184430524706841 3.418200895190239 7.7938167601823798 5.2263014167547235 5.2368952035903966 4.8588248491287231 2.1960510909557343 2.0964906960725784 3.2657098844647408 1.9685780853033064
leaf_count=22 20 32 23 20 33 17 23 26 29 22 39 20 20 32 22 22 20 22 19 20 18
internal_value=0.000212742 0.00909586 0.0217076 0.0272272 0.00262032 0.00626177 0.000260065 0.0247121 0.00547213 0.012602 0.0214877 0.0363649 0.00994269 -0.0202543 -0.0159618 -0.0228268 -0.0125363 0.0440121 0.0500565 0.0203803 0.0578555
internal_weight=94.1459 65.6517 22.273 18.961 43.3787 37.3075 28.1505 9.15705 24.6541 19.1605 14.7501 10.0251 9.34147 28.4942 20.7004 15.322 10.0957 9.61952 6.26112 5.92327 4.16463
internal_count=521 403 162 142 241 209 150 59 133 104 82 59 60 118 86 64 42 82 59 40 40
cat_boundaries=0 1 2 3 4
cat_threshold=2 1 1 1
is_linear=0
shrinkage=0.05


Tree=27
num_leaves=19
num_cat=3
split_feature=4 10 1 1 0 1 2 2 0 1 1 10 1 6 0 0 0 0
split_gain=6.21404 2.02086 2.14651 2.69911 3.14412 2.39592 2.39576 2.34541 1.87543 2.58895 1.80946 1.45923 1.05912 0.59056 0.96185 1.59273 0.276556 0.186566
threshold=1.0000000180025095e-35 0 4317.0000000000009 1.0000000180025095e-35 4891.0000000000009 1575.5000000000002 158.50000000000003 113.50000000000001 4195.5000000000009 1847.0000000000002 1424.5000000000002 1 2166.5000000000005 2 4074.0000000000005 2816.0000000000005 3166.5000000000005 3559.5000000000005
decision_type=2 1 2 2 2 2 2 2 2 2 2 1 2 9 2 2 2 2
left_child=13 8 3 4 11 -5 -6 -7 9 -2 -10 -3 -9 14 15 -1 -14 -15
right_child=1 2 -4 5 6 7 -8 12 10 -11 -12 -13 16 17 -16 -17 -18 -19
leaf_value=-0.0030426305827044565 -0.010730806192343442 -0.024711269008334501 -0.023504799738007488 0.063043819990217728 0.052754225652854314 -0.0092653792815230399 0.0052258425722750178 0.012881266671880432 -0.0024978264488348841 0.039637351171772278 -0.04445475034135303 0.0094389052993502694 0.038221130474032528 -0.022169910802677197 -0.0011019558289808791 -0.042175345416861493 0.061260248817241514 -0.035927709432953377
leaf_weight=4.8414525240659732 5.8278602138161677 7.158760741353035 3.3665074035525313 4.8142460957169559 4.895102992653845 4.1308052688837043 5.7846138477325439 2.9245425611734372 6.7926374375820142 4.537678137421608 4.1333929896354675 5.555702246725561 2.4533851146697998 4.8312868922948855 8.093132868409155 5.6167247742414474 2.7767647355794907 5.0294736921787262
leaf_count=20 29 32 20 34 34 29 33 20 37 33 20 38 23 20 33 24 21 21
internal_value=0.000212943 0.00872217 0.0148576 0.0180469 0.00701048 0.0331457 0.0270107 0.0214297 -0.00391666 0.0113187 -0.0183704 -0.00978903 0.0369785 -0.0192996 -0.0140441 -0.0240595 0.0504529 -0.0291871
internal_weight=93.5641 65.152 43.8604 40.4939 23.3942 17.0997 10.6797 12.2855 21.2916 10.3655 10.926 12.7145 8.15469 28.4121 18.5513 10.4582 5.23015 9.86076
internal_count=521 403 284 264 137 127 67 93 119 62 57 70 64 118 77 44 44 41
cat_boundaries=0 1 2 3
cat_threshold=1 4 4
is_linear=0
shrinkage=0.05


Tree=28
num_leaves=22
num_cat=3
split_feature=4 10 3 0 0 0 0 1 0 0 6 2 0 0 1 2 10 2 0 0 0
split_gain=5.64144 1.85896 1.42359 2.1631 1.32716 1.48835 3.11953 1.94422 1.70872 3.0432 4.25549 1.32388 0.779773 0.7658 0.555135 1.4928 1.07342 1.91443 0.277399 0.59632 0.240687
threshold=1.0000000180025095e-35 0 330.00000000000006 3866.0000000000005 2476.0000000000005 3361.5000000000005 3671.0000000000005 2034.5000000000002 4195.5000000000009 4620.5000000000009 1 137.50000000000003 4729.0000000000009 8076.0000000000009 1996.5000000000002 137.50000000000003 2 118.50000000000001 3155.5000000000005 2499.5000000000005 8076.0000000000009
decision_type=2 1 2 2 2 2 2 2 2 2 9 2 2 2 2 2 1 2 2 2 2
left_child=14 2 -2 18 -3 7 -7 -6 -8 -10 11 -11 -5 -14 16 -16 -1 -18 19 -4 -13
right_child=1 4 3 12 5 6 8 -9 9 10 -12 20 13 -15 15 -17 17 -19 -20 -21 -22
leaf_value=-0.041573230251000105 -0.0098799038894458058 -0.019297385020682671 0.057428906659006955 -0.0078322458208169975 0.0077303210507756034 -0.046683091942593145 0.034884120999380278 0.057809711377532436 -0.039585130747687249 0.05301404337473891 -0.023928979722946594 0.0059421932952245489 0.036166004754069211 0.0033065701503212524 0.010943765648385475 -0.02716759934602514 -0.032894062775799086 0.006849500824092739 0.05866446584020777 0.022435221629253547 0.024579360348054833
leaf_weight=5.7248075008392334 3.3090340793132809 6.0810683816671363 2.2948651239275959 3.574420861899851 6.0815620422363263 3.1439394801855114 4.289493381977084 2.8445545360445976 3.8971813023090389 3.6445216611027718 6.0588254332542428 3.271662063896656 3.7887452989816666 3.3328669220209122 4.8754559457302076 5.4322061687707901 6.8681883066892677 5.4220470935106277 2.7724077850580215 2.5929934903979301 3.6818906664848328
leaf_count=24 20 32 23 26 33 15 23 26 19 22 29 19 26 21 20 23 29 22 25 21 23
internal_value=0.000213236 0.00836428 0.0203072 0.025749 0.00234613 0.00591164 0.000241702 0.0236895 0.00618001 0.000189658 0.00949569 0.0286043 0.0112236 0.020788 -0.0183954 -0.00914118 -0.0236904 -0.0153605 0.0460307 0.0388649 0.0158105
internal_weight=92.9827 64.66 21.6653 18.3563 42.9947 36.9136 27.9875 8.92612 24.8436 20.5541 16.6569 10.5981 10.696 7.12161 28.3227 10.3077 18.015 12.2902 7.66027 4.88786 6.95355
internal_count=521 403 162 142 241 209 150 59 135 112 93 64 73 47 118 43 75 51 69 44 42
cat_boundaries=0 1 2 3
cat_threshold=2 4 2
is_linear=0
shrinkage=0.05


Tree=29
num_leaves=20
num_cat=2
split_feature=4 10 1 1 1 2 1 5 1 1 2 2 2 2 2 2 2 2 1
split_gain=5.12676 1.76982 1.96865 2.52209 2.38484 2.13471 1.63425 1.21543 1.03775 1.03527 2.2256 0.936115 0.838356 1.8964 0.61607 0.551851 1.12821 1.22521 0.230291
threshold=1.0000000180025095e-35 0 4317.0000000000009 1.0000000180025095e-35 1575.5000000000002 113.50000000000001 3006.5000000000005 1 2166.5000000000005 2034.5000000000002 106.50000000000001 95.500000000000014 88.500000000000014 133.50000000000003 135.50000000000003 175.50000000000003 128.50000000000003 102.50000000000001 2590.5000000000005
decision_type=2 1 2 2 2 2 2 1 2 2 2 2 2 2 2 2 2 2 2
left_child=15 6 3 7 -5 -6 9 12 -7 10 -2 -9 -3 -14 -12 16 17 -1 -10
right_child=1 2 -4 4 5 8 -8 11 18 -11 14 -13 13 -15 -16 -17 -18 -19 -20
leaf_value=-0.0074610338763356479 -0.036802464898930971 -0.017862963349796909 -0.022777516365411147 0.06240974405506005 -0.009000594676892161 0.011488175311682012 0.027143998490129807 0.041701584492453612 0.038403277289641199 -0.034977722690787139 -0.0043463651385905362 0.0062471066612328043 0.030557614951604386 -0.012576203250964571 0.019955782456571841 -0.030898923334223921 0.0028191349374497359 -0.035872333149091627 0.059967695663483957
leaf_weight=7.666508570313459 3.8211335837841096 5.2810617983341226 3.3811355829238883 4.6094190850853947 4.1310044452548009 2.8660035878419876 3.5482024177908889 3.5030506849288949 2.4521324336528778 3.3686260506510726 5.2170985192060453 3.9736712872982025 4.5940933451056463 5.7220193296670914 5.2142622470855713 6.080521658062934 6.9340896904468527 7.5135699957609177 2.500584289431572
leaf_count=32 18 26 20 34 29 20 22 19 23 21 28 24 34 34 30 25 29 32 21
internal_value=0.000213211 0.00802011 0.0138448 0.0169691 0.031858 0.0200731 -0.00381506 0.00628392 0.0354341 -0.010049 -0.00415702 0.0228585 -0.00166134 0.00663266 0.0078014 -0.0175587 -0.0138907 -0.0215236 0.049291
internal_weight=92.3782 64.1835 43.0142 39.633 16.5591 11.9497 21.1693 23.0739 7.81872 17.6211 14.2525 7.47672 15.5972 10.3161 10.4314 28.1947 22.1142 15.1801 4.95272
internal_count=521 403 284 264 127 93 119 137 64 97 76 43 94 68 58 118 93 64 44
cat_boundaries=0 1 2
cat_threshold=1 2
is_linear=0
shrinkage=0.05


Tree=30
num_leaves=21
num_cat=4
split_feature=4 10 2 2 6 0 2 0 1 0 10 8 0 2 0 0 0 2 1 0
split_gain=4.65009 1.63934 1.36569 2.12633 2.25172 1.20905 1.17493 2.09363 2.12525 2.09126 1.36179 1.1668 1.02751 1.01358 0.828942 0.530331 0.983302 1.41302 0.721416 0.00165073
threshold=1.0000000180025095e-35 0 153.00000000000003 112.50000000000001 1 2038.0000000000002 289.00000000000006 7940.5000000000009 1611.0000000000002 4255.5000000000009 2 3 2591.5000000000005 187.50000000000003 3996.5000000000005 5404.0000000000009 3155.5000000000005 99.500000000000014 1239.5000000000002 4074.0000000000005
decision_type=2 1 2 2 9 2 2 2 2 2 1 1 2 2 2 2 2 2 2 2
left_child=15 2 3 4 -2 -3 7 8 10 12 11 -7 -10 -4 -12 16 17 -1 -18 -5
right_child=1 5 13 19 -6 6 -8 -9 9 -11 14 -13 -14 -15 -16 -17 18 -19 -20 -21
leaf_value=-0.0034445522047816951 -0.0082132474017189948 -0.025367309098836322 -0.016538623275018181 0.05527043151933167 0.044206480748529092 -0.0051196487292281736 -0.022738787445110282 0.040839002245397805 0.011896184808615227 -0.014588383428072355 -0.0054935970460079468 -0.039988834229679242 0.049865533606912996 0.01902415057521667 0.022480420637541122 -0.027929143747036311 0.011966525742850124 -0.040372860230052925 -0.014866390609150459 0.057159248901092419
leaf_weight=4.8242250829935127 4.8304843232035664 3.678008794784545 3.6622235476970655 2.5409734100103369 3.5573082342743865 5.7094564288854617 3.5649017989635459 4.1292363181710234 2.8929584771394712 2.9159746766090393 6.5420046895742434 4.1378597319126129 4.6390790939331055 4.4238470047712326 4.4493163451552391 7.6804469525814048 5.052842825651167 5.5943902581930161 4.9674726724624634 2.1233889982104301
leaf_count=20 30 19 22 31 33 29 17 27 20 15 32 19 37 26 26 32 21 24 21 20
internal_value=0.000211902 0.00767822 0.0190643 0.0290675 0.0140182 0.0020362 0.00462184 0.00737592 0.00295943 0.0213635 -0.00626794 -0.0197717 0.035282 0.00291758 0.00583036 -0.0167276 -0.0125184 -0.0232736 -0.00133563 0.0561303
internal_weight=91.9164 63.797 21.1382 13.0522 8.38779 42.6588 38.9808 35.4159 31.2866 10.448 20.8386 9.84732 7.53204 8.08607 10.9913 28.1194 20.4389 10.4186 10.0203 4.66436
internal_count=521 403 162 114 63 241 222 205 178 72 106 48 57 48 58 118 86 44 42 51
cat_boundaries=0 1 2 3 4
cat_threshold=2 1 1 1
is_linear=0
shrinkage=0.05


Tree=31
num_leaves=21
num_cat=4
split_feature=4 10 2 2 6 0 0 0 1 0 0 6 2 2 6 0 0 0 0 0
split_gain=4.22105 1.51263 1.2857 2.07903 2.11006 1.09283 1.33471 2.74067 1.83072 1.57207 2.72507 3.8285 1.24783 0.91781 0.560191 0.891839 1.5263 0.213342 0.177147 0.0013942
threshold=1.0000000180025095e-35 0 153.00000000000003 112.50000000000001 1 2476.0000000000005 3361.5000000000005 3671.0000000000005 2034.5000000000002 4195.5000000000009 4620.5000000000009 2 137.50000000000003 187.50000000000003 3 4074.0000000000005 2816.0000000000005 8076.0000000000009 3559.5000000000005 4074.0000000000005
decision_type=2 1 2 2 9 2 2 2 2 2 2 9 2 2 9 2 2 2 2 2
left_child=14 2 3 4 -2 -3 8 -8 -7 -9 -11 12 -12 -4 15 16 -1 -14 -16 -5
right_child=1 5 13 19 -6 6 7 9 -10 10 11 -13 17 -15 18 -17 -18 -19 -20 -21
leaf_value=7.6938487823651145e-05 -0.007765623438922716 -0.017544191957743406 -0.01556943508287165 0.054990327997051829 0.043404273880196693 0.0071799405691501594 -0.043881721951700606 0.03347289054563482 0.057152387202152578 -0.037683108825110868 0.051537429210170675 -0.02272436083125691 0.0055598910631523158 0.018272171569940945 -0.018781819702037281 0.0016935852692096431 -0.038524459369362024 0.023241056182218323 -0.032286775888797185 0.056764855928985308
leaf_weight=4.7948246449232119 4.8528840765357044 6.1480612978339186 3.694819360971449 2.4290487617254248 3.4447766207158557 6.0238718762993795 3.166866987943652 4.1798764690756824 2.6341787651181221 3.9145797342062023 3.5004538670182228 6.0862149745225915 3.2530583813786507 4.3768355026841164 4.7773080766201037 8.0308041423559171 5.4960911124944687 3.587553471326828 4.9382110685110092 2.03350780159235
leaf_count=20 30 32 22 31 33 33 15 23 26 19 22 29 19 26 20 33 24 23 21 20
internal_value=0.000211137 0.00736215 0.018399 0.0282784 0.0134776 0.00195162 0.00524935 -0.000108504 0.0223839 0.0055446 -0.000194147 0.00873938 0.0272573 0.0027811 -0.0159406 -0.010794 -0.020539 0.0148328 -0.0256461 0.0557989
internal_weight=91.3638 63.3266 20.8319 12.7602 8.29766 42.4947 36.3467 27.6886 8.65805 24.5217 20.3419 16.4273 10.3411 8.07165 28.0372 18.3217 10.2909 6.84061 9.71552 4.46256
internal_count=521 403 162 114 63 241 209 150 59 135 112 93 64 48 118 77 44 42 41 51
cat_boundaries=0 1 2 3 4
cat_threshold=2 1 4 4
is_linear=0
shrinkage=0.05


Tree=32
num_leaves=22
num_cat=4
split_feature=4 10 1 1 1 2 1 1 5 2 10 2 2 2 1 2 1 2 10 2 1
split_gain=3.83333 1.4119 1.83643 2.37651 2.37835 1.97253 1.7024 1.40443 1.16 0.936887 0.768677 1.18912 0.80939 0.595123 2.61947 1.91081 0.544895 1.35443 0.99196 1.76265 0.208504
threshold=1.0000000180025095e-35 0 4317.0000000000009 1.0000000180025095e-35 1575.5000000000002 113.50000000000001 2034.5000000000002 3006.5000000000005 1 95.500000000000014 2 95.500000000000014 128.50000000000003 126.50000000000001 1404.5000000000002 106.50000000000001 1996.5000000000002 137.50000000000003 3 118.50000000000001 2536.0000000000005
decision_type=2 1 2 2 2 2 2 2 1 2 1 2 2 2 2 2 2 2 1 2 2
left_child=16 7 3 8 -5 -6 -7 13 10 -10 12 -12 -3 15 -15 -2 18 -18 -1 -20 -8
right_child=1 2 -4 4 5 6 20 -9 9 -11 11 -13 -14 14 -16 -17 17 -19 19 -21 -22
leaf_value=-0.037883976324410581 -0.021763112115108198 0.029158384862165994 -0.023090210129068683 0.061854518809984577 -0.0094313519678623885 -0.0020788188923108377 0.059554669438902967 0.025738420866475792 0.04049352208848972 0.0046204372412284337 -0.032489475183217001 0.0034554602774490291 -0.0080400550726291882 0.005044167340333439 -0.048218724710487326 0.026767025944438257 0.013026739072186034 -0.023437481802953918 -0.029518309690655654 0.0088316678587047528 0.039379441328592599
leaf_weight=5.6072287261486053 4.3890873044729286 3.0758885443210602 3.3576092943549147 4.3403642401099196 4.0951542258262617 2.2861969396471977 2.6490128412842751 3.4336042925715438 3.4303054362535468 3.8773531094193459 3.9530991166830081 5.5049400106072426 2.787642277777195 5.3869237750768644 4.0392153710126877 3.7709894850850105 4.8827026188373548 5.3227071762084961 6.7337332516908699 5.3982481956481934 2.4790618568658829
leaf_count=24 22 25 20 34 29 17 25 22 19 24 18 33 18 30 21 24 20 23 29 22 22
internal_value=0.000211169 0.00706111 0.0123728 0.0154672 0.0303147 0.0184205 0.0338041 -0.00351096 0.00506793 0.0214597 -0.00275017 -0.0115681 0.0114735 -0.00922173 -0.0177796 0.000663961 -0.0151966 -0.00599145 -0.0204923 -0.0124541 0.0498014
internal_weight=90.8011 62.8564 41.8366 38.479 15.8498 11.5094 7.41427 21.0198 22.6292 7.30766 15.3216 9.45804 5.86353 17.5862 9.42614 8.16008 27.9446 10.2054 17.7392 12.132 5.12807
internal_count=521 403 284 264 127 93 64 119 137 43 94 51 43 97 51 46 118 43 75 51 47
cat_boundaries=0 1 2 3 4
cat_threshold=1 2 2 2
is_linear=0
shrinkage=0.05


Tree=33
num_leaves=21
num_cat=1
split_feature=4 2 2 2 2 2 1 0 1 1 0 0 6 0 0 0 0 0 2 1
split_gain=3.48292 1.39174 1.38871 2.9328 1.7521 1.19313 2.90007 3.11859 2.34174 1.4088 1.22214 3.43911 1.45549 1.04247 1.10656 0.842377 0.526798 0.911306 1.29585 0.692743
threshold=1.0000000180025095e-35 302.00000000000006 84.500000000000014 60.500000000000007 43.000000000000007 132.50000000000003 3006.5000000000005 3656.0000000000005 2416.5000000000005 1730.5000000000002 4729.0000000000009 4195.5000000000009 0 9245.0000000000018 4729.0000000000009 6391.5000000000009 5404.0000000000009 3155.5000000000005 99.500000000000014 1239.5000000000002
decision_type=2 2 2 2 2 2 2 2 2 2 2 2 9 2 2 2 2 2 2 2
left_child=16 2 3 4 -2 8 7 -7 9 10 11 12 -4 14 -9 -16 17 18 -1 -19
right_child=1 -3 5 -5 -6 6 -8 13 -10 -11 -12 -13 -14 -15 15 -17 -18 19 -20 -21
leaf_value=-0.0017354916461068362 -0.0064076943091158512 -0.020988585262130904 0.058224749520863206 -0.028833097285703609 0.041530842186172673 -0.038395791801956937 0.041304787661674718 0.024966321886259704 -0.018209438261018347 0.058774303230573414 0.048184529714749971 -0.033119035753583666 0.013254787406382963 0.033018724654320389 -0.024077682210484862 0.0089235544841018144 -0.025734138260048257 0.013573989595842141 -0.037326035892231137 -0.012825399168963797
leaf_weight=4.792051047086721 3.9959969967603666 4.2132613807916632 3.0350660979747772 6.7163478955626488 3.6443205997347832 4.6823346205055776 4.596524477005004 3.4113424867391569 3.045508660376071 3.2914883866906157 3.4330056905746451 2.8369944468140602 4.419137038290506 3.3434943482279769 4.2805223762989044 3.5269535705447197 7.5962286591529837 5.0189511775970441 5.484932154417038 4.9219493418931961
leaf_count=20 22 21 32 32 20 33 32 21 24 30 26 16 26 23 24 21 32 21 24 21
internal_value=0.000209704 0.00676239 0.00876932 -0.00472997 0.0164583 0.0131838 0.00562267 -0.00289989 0.0221696 0.0293967 0.022351 0.0137333 0.0315648 0.00851338 0.00121016 -0.00916969 -0.014508 -0.0102902 -0.0207305 0.000503096
internal_weight=90.2864 62.4723 58.259 14.3567 7.64032 43.9024 23.8412 19.2446 20.0612 17.0157 13.7242 10.2912 7.4542 14.5623 11.2188 7.80748 27.8141 20.2179 10.277 9.9409
internal_count=521 403 382 74 42 308 154 122 154 130 100 74 58 89 66 45 118 86 44 42
cat_boundaries=0 1
cat_threshold=4
is_linear=0
shrinkage=0.05


Tree=34
num_leaves=20
num_cat=3
split_feature=4 10 1 1 0 1 2 2 1 0 1 1 0 1 2 10 2 10 0
split_gain=3.16212 1.2696 1.70464 2.15745 2.77565 2.33634 2.159 1.89731 1.63812 1.47754 1.97473 1.27104 1.15892 0.532831 1.19301 0.931566 1.62049 0.438216 0.345989
threshold=1.0000000180025095e-35 0 4317.0000000000009 1.0000000180025095e-35 4891.0000000000009 1575.5000000000002 158.50000000000003 113.50000000000001 2034.5000000000002 4195.5000000000009 1847.0000000000002 991.39999390000014 3336.5000000000005 1996.5000000000002 137.50000000000003 1 118.50000000000001 2 3166.5000000000005
decision_type=2 1 2 2 2 2 2 2 2 2 2 2 2 2 2 1 2 1 2
left_child=13 9 3 4 12 -5 -6 -7 -9 10 -2 -11 -3 15 -15 -1 -17 -14 -10
right_child=1 2 -4 5 6 7 -8 8 18 11 -12 -13 17 14 -16 16 -18 -19 -20
leaf_value=-0.03605384261129925 -0.00837693805561808 0.0069447838038750216 -0.022485975239654708 0.061213229719663378 0.050497211805353159 -0.010131583678258357 0.0038440140343195262 -0.0025499531848857666 0.033263785708398164 -0.00092441680332484724 0.036786618774149939 -0.035240060810137301 -0.010959216708593941 0.013103292676657378 -0.021230956083906499 -0.027782951308787621 0.0090837953640793348 -0.035672328851974931 0.060103516528669826
leaf_weight=5.5416928231716156 5.8357813805341738 5.155239403247835 3.3728332072496405 4.1278508082032195 4.3985485658049566 4.0522058680653554 5.6850893348455429 2.2649415321648121 2.0713258907198906 6.0341819524764997 4.1354310587048531 4.8814094290137291 3.3719340711832047 4.8811095952987653 5.252742126584053 6.6612622141838127 5.3945897370576859 3.8327214866876602 2.8568004034459591
leaf_count=24 29 28 20 34 34 29 33 17 23 32 33 25 25 20 23 29 22 17 24
internal_value=0.000210679 0.00648151 0.0115735 0.0146112 0.00472716 0.0290411 0.0241944 0.0172315 0.0326465 -0.00355999 0.0103541 -0.0162702 -0.0111549 -0.0138265 -0.00469339 -0.0190859 -0.0112863 -0.0241061 0.0488226
internal_weight=89.8077 62.0763 41.1895 37.8167 22.4435 15.3731 10.0836 11.2453 7.19307 20.8868 9.97121 10.9156 12.3599 27.7314 10.1339 17.5975 12.0559 7.20466 4.92813
internal_count=521 403 284 264 137 127 67 93 64 119 62 57 70 118 43 75 51 42 47
cat_boundaries=0 1 2 3
cat_threshold=1 2 2
is_linear=0
shrinkage=0.05


end of trees

feature_importances:
LoanAmount=217
ApplicantIncome=194
CoapplicantIncome=131
Property_Area=47
Married=35
Credit_History=34
Gender=21
Loan_Amount_Term=8
Education=4
Self_Employed=2

parameters:
[boosting: gbdt]
[objective: binary]
[metric: binary_logloss]
[tree_learner: serial]
[device_type: cpu]
[data_sample_strategy: bagging]
[data: ]
[valid: ]
[num_iterations: 1000]
[learning_rate: 0.05]
[num_leaves: 31]
[num_threads: 0]
[seed: 0]
[deterministic: 0]
[force_col_wise: 0]
[force_row_wise: 0]
[histogram_pool_size: -1]
[max_depth: -1]
[min_data_in_leaf: 20]
[min_sum_hessian_in_leaf: 0.001]
[bagging_fraction: 1]
[pos_bagging_fraction: 1]
[neg_bagging_fraction: 1]
[bagging_freq: 0]
[bagging_seed: 3]
[bagging_by_query: 0]
[feature_fraction: 0.9]
[feature_fraction_bynode: 1]
[feature_fraction_seed: 2]
[extra_trees: 0]
[extra_seed: 6]
[early_stopping_round: 0]
[early_stopping_min_delta: 0]
[first_metric_only: 0]
[max_delta_step: 0]
[lambda_l1: 0]
[lambda_l2: 0]
[linear_lambda: 0]
[min_gain_to_split: 0]
[drop_rate: 0.1]
[max_drop: 50]
[skip_drop: 0.5]
[xgboost_dart_mode: 0]
[uniform_drop: 0]
[drop_seed: 4]
[top_rate: 0.2]
[other_rate: 0.1]
[min_data_per_group: 100]
[max_cat_threshold: 32]
[cat_l2: 10]
[cat_smooth: 10]
[max_cat_to_onehot: 4]
[top_k: 20]
[monotone_constraints: ]
[monotone_constraints_method: basic]
[monotone_penalty: 0]
[feature_contri: ]
[forcedsplits_filename: ]
[refit_decay_rate: 0.9]
[cegb_tradeoff: 1]
[cegb_penalty_split: 0]
[cegb_penalty_feature_lazy: ]
[cegb_penalty_feature_coupled: ]
[path_smooth: 0]
[interaction_constraints: ]
[verbosity: 1]
[saved_feature_importance_type: 0]
[use_quantized_grad: 0]
[num_grad_quant_bins: 4]
[quant_train_renew_leaf: 0]
[stochastic_rounding: 1]
[linear_tree: 0]
[max_bin: 255]
[max_bin_by_feature: ]
[min_data_in_bin: 3]
[bin_construct_sample_cnt: 200000]
[data_random_seed: 1]
[is_enable_sparse: 1]
[enable_bundle: 1]
[use_missing: 1]
[zero_as_missing: 0]
[feature_pre_filter: 1]
[pre_partition: 0]
[two_round: 0]
[header: 0]
[label_column: ]
[weight_column: ]
[group_column: ]
[ignore_column: ]
[categorical_feature: 5,6,7,8,9,10]
[forcedbins_filename: ]
[precise_float_parser: 0]
[parser_config_file: ]
[objective_seed: 5]
[num_class: 1]
[is_unbalance: 0]
[scale_pos_weight: 1]
[sigmoid: 1]
[boost_from_average: 1]
[reg_sqrt: 0]
[alpha: 0.9]
[fair_c: 1]
[poisson_max_delta_step: 0.7]
[tweedie_variance_power: 1.5]
[lambdarank_truncation_level: 30]
[lambdarank_norm: 1]
[label_gain: ]
[lambdarank_position_bias_regularization: 0]
[eval_at: ]
[multi_error_top_k: 1]
[auc_mu_weights: ]
[num_machines: 1]
[local_listen_port: 12400]
[time_out: 120]
[machine_list_filename: ]
[machines: ]
[gpu_platform_id: -1]
[gpu_device_id: -1]
[gpu_use_dp: 0]
[num_gpu: 1]

end of parameters

pandas_categorical:[["Female", "Male", "Unknown"], ["No", "Unknown", "Yes"], ["0", "1", "2", "3+", "Unknown"], ["Graduate", "Not Graduate"], ["No", "Unknown", "Yes"], ["Rural", "Semiurban", "Urban"]]
